digraph Tree {
node [shape=box, style="filled, rounded", color="black", fontname="helvetica"] ;
edge [fontname="helvetica"] ;
0 [label="euribor3m <= 1.24\nentropy = 0.51\nsamples = 18101\nvalue = [25563, 3268]", fillcolor="#e89152"] ;
1 [label="previous <= 0.5\nentropy = 0.99\nsamples = 1885\nvalue = [1681, 1356]", fillcolor="#fae7d9"] ;
0 -> 1 [labeldistance=2.5, labelangle=45, headlabel="True"] ;
2 [label="nr_employed <= 5013.1\nentropy = 0.96\nsamples = 937\nvalue = [941, 567]", fillcolor="#f5cdb0"] ;
1 -> 2 ;
3 [label="emp_var_rate <= -1.75\nentropy = 0.98\nsamples = 373\nvalue = [352, 252]", fillcolor="#f8dbc7"] ;
2 -> 3 ;
4 [label="duration <= 174.0\nentropy = 1.0\nsamples = 118\nvalue = [100, 90]", fillcolor="#fcf2eb"] ;
3 -> 4 ;
5 [label="default_unknown <= 0.5\nentropy = 0.54\nsamples = 45\nvalue = [63, 9]", fillcolor="#e99355"] ;
4 -> 5 ;
6 [label="age <= 72.5\nentropy = 0.57\nsamples = 42\nvalue = [57, 9]", fillcolor="#e99558"] ;
5 -> 6 ;
7 [label="education_high.school <= 0.5\nentropy = 0.51\nsamples = 39\nvalue = [55, 7]", fillcolor="#e89152"] ;
6 -> 7 ;
8 [label="education_unknown <= 0.5\nentropy = 0.41\nsamples = 30\nvalue = [45.0, 4.0]", fillcolor="#e78c4b"] ;
7 -> 8 ;
9 [label="marital_single <= 0.5\nentropy = 0.34\nsamples = 28\nvalue = [44.0, 3.0]", fillcolor="#e78a46"] ;
8 -> 9 ;
10 [label="entropy = 0.47\nsamples = 19\nvalue = [27, 3]", fillcolor="#e88f4f"] ;
9 -> 10 ;
11 [label="entropy = 0.0\nsamples = 9\nvalue = [17, 0]", fillcolor="#e58139"] ;
9 -> 11 ;
12 [label="duration <= 118.5\nentropy = 1.0\nsamples = 2\nvalue = [1, 1]", fillcolor="#ffffff"] ;
8 -> 12 ;
13 [label="entropy = 0.0\nsamples = 1\nvalue = [1, 0]", fillcolor="#e58139"] ;
12 -> 13 ;
14 [label="entropy = 0.0\nsamples = 1\nvalue = [0, 1]", fillcolor="#399de5"] ;
12 -> 14 ;
15 [label="job_management <= 0.5\nentropy = 0.78\nsamples = 9\nvalue = [10, 3]", fillcolor="#eda774"] ;
7 -> 15 ;
16 [label="contact_telephone <= 0.5\nentropy = 0.92\nsamples = 8\nvalue = [6, 3]", fillcolor="#f2c09c"] ;
15 -> 16 ;
17 [label="entropy = 0.81\nsamples = 4\nvalue = [3, 1]", fillcolor="#eeab7b"] ;
16 -> 17 ;
18 [label="entropy = 0.97\nsamples = 4\nvalue = [3, 2]", fillcolor="#f6d5bd"] ;
16 -> 18 ;
19 [label="entropy = 0.0\nsamples = 1\nvalue = [4, 0]", fillcolor="#e58139"] ;
15 -> 19 ;
20 [label="campaign <= 1.5\nentropy = 1.0\nsamples = 3\nvalue = [2, 2]", fillcolor="#ffffff"] ;
6 -> 20 ;
21 [label="entropy = 0.0\nsamples = 1\nvalue = [2, 0]", fillcolor="#e58139"] ;
20 -> 21 ;
22 [label="entropy = 0.0\nsamples = 2\nvalue = [0, 2]", fillcolor="#399de5"] ;
20 -> 22 ;
23 [label="entropy = 0.0\nsamples = 3\nvalue = [6, 0]", fillcolor="#e58139"] ;
5 -> 23 ;
24 [label="age <= 36.5\nentropy = 0.9\nsamples = 73\nvalue = [37, 81]", fillcolor="#93caf1"] ;
4 -> 24 ;
25 [label="contact_cellular <= 0.5\nentropy = 0.99\nsamples = 36\nvalue = [27, 35]", fillcolor="#d2e9f9"] ;
24 -> 25 ;
26 [label="job_blue-collar <= 0.5\nentropy = 0.44\nsamples = 6\nvalue = [1, 10]", fillcolor="#4da7e8"] ;
25 -> 26 ;
27 [label="cons_conf_idx <= -34.7\nentropy = 0.47\nsamples = 5\nvalue = [1, 9]", fillcolor="#4fa8e8"] ;
26 -> 27 ;
28 [label="campaign <= 2.5\nentropy = 0.59\nsamples = 4\nvalue = [1, 6]", fillcolor="#5aade9"] ;
27 -> 28 ;
29 [label="entropy = 0.92\nsamples = 2\nvalue = [1, 2]", fillcolor="#9ccef2"] ;
28 -> 29 ;
30 [label="entropy = 0.0\nsamples = 2\nvalue = [0, 4]", fillcolor="#399de5"] ;
28 -> 30 ;
31 [label="entropy = 0.0\nsamples = 1\nvalue = [0, 3]", fillcolor="#399de5"] ;
27 -> 31 ;
32 [label="entropy = 0.0\nsamples = 1\nvalue = [0, 1]", fillcolor="#399de5"] ;
26 -> 32 ;
33 [label="housing_unknown <= 0.5\nentropy = 1.0\nsamples = 30\nvalue = [26, 25]", fillcolor="#fefaf7"] ;
25 -> 33 ;
34 [label="education_professional.course <= 0.5\nentropy = 1.0\nsamples = 29\nvalue = [26, 23]", fillcolor="#fcf0e8"] ;
33 -> 34 ;
35 [label="loan_no <= 0.5\nentropy = 0.99\nsamples = 25\nvalue = [18, 22]", fillcolor="#dbedfa"] ;
34 -> 35 ;
36 [label="entropy = 0.0\nsamples = 1\nvalue = [2, 0]", fillcolor="#e58139"] ;
35 -> 36 ;
37 [label="entropy = 0.98\nsamples = 24\nvalue = [16, 22]", fillcolor="#c9e4f8"] ;
35 -> 37 ;
38 [label="day_of_week_fri <= 0.5\nentropy = 0.5\nsamples = 4\nvalue = [8, 1]", fillcolor="#e89152"] ;
34 -> 38 ;
39 [label="entropy = 0.0\nsamples = 3\nvalue = [8, 0]", fillcolor="#e58139"] ;
38 -> 39 ;
40 [label="entropy = 0.0\nsamples = 1\nvalue = [0, 1]", fillcolor="#399de5"] ;
38 -> 40 ;
41 [label="entropy = 0.0\nsamples = 1\nvalue = [0, 2]", fillcolor="#399de5"] ;
33 -> 41 ;
42 [label="day_of_week_wed <= 0.5\nentropy = 0.68\nsamples = 37\nvalue = [10, 46]", fillcolor="#64b2eb"] ;
24 -> 42 ;
43 [label="education_unknown <= 0.5\nentropy = 0.77\nsamples = 28\nvalue = [9, 31]", fillcolor="#72b9ed"] ;
42 -> 43 ;
44 [label="duration <= 487.5\nentropy = 0.71\nsamples = 24\nvalue = [7, 29]", fillcolor="#69b5eb"] ;
43 -> 44 ;
45 [label="day_of_week_fri <= 0.5\nentropy = 0.41\nsamples = 16\nvalue = [2, 22]", fillcolor="#4ba6e7"] ;
44 -> 45 ;
46 [label="entropy = 0.52\nsamples = 11\nvalue = [2, 15]", fillcolor="#53aae8"] ;
45 -> 46 ;
47 [label="entropy = 0.0\nsamples = 5\nvalue = [0, 7]", fillcolor="#399de5"] ;
45 -> 47 ;
48 [label="euribor3m <= 0.67\nentropy = 0.98\nsamples = 8\nvalue = [5, 7]", fillcolor="#c6e3f8"] ;
44 -> 48 ;
49 [label="entropy = 0.76\nsamples = 6\nvalue = [2, 7]", fillcolor="#72b9ec"] ;
48 -> 49 ;
50 [label="entropy = 0.0\nsamples = 2\nvalue = [3, 0]", fillcolor="#e58139"] ;
48 -> 50 ;
51 [label="euribor3m <= 0.65\nentropy = 1.0\nsamples = 4\nvalue = [2, 2]", fillcolor="#ffffff"] ;
43 -> 51 ;
52 [label="entropy = 0.0\nsamples = 1\nvalue = [1, 0]", fillcolor="#e58139"] ;
51 -> 52 ;
53 [label="contact_telephone <= 0.5\nentropy = 0.92\nsamples = 3\nvalue = [1, 2]", fillcolor="#9ccef2"] ;
51 -> 53 ;
54 [label="entropy = 1.0\nsamples = 2\nvalue = [1, 1]", fillcolor="#ffffff"] ;
53 -> 54 ;
55 [label="entropy = 0.0\nsamples = 1\nvalue = [0, 1]", fillcolor="#399de5"] ;
53 -> 55 ;
56 [label="education_university.degree <= 0.5\nentropy = 0.34\nsamples = 9\nvalue = [1, 15]", fillcolor="#46a4e7"] ;
42 -> 56 ;
57 [label="entropy = 0.0\nsamples = 7\nvalue = [0, 14]", fillcolor="#399de5"] ;
56 -> 57 ;
58 [label="job_technician <= 0.5\nentropy = 1.0\nsamples = 2\nvalue = [1, 1]", fillcolor="#ffffff"] ;
56 -> 58 ;
59 [label="entropy = 0.0\nsamples = 1\nvalue = [0, 1]", fillcolor="#399de5"] ;
58 -> 59 ;
60 [label="entropy = 0.0\nsamples = 1\nvalue = [1, 0]", fillcolor="#e58139"] ;
58 -> 60 ;
61 [label="month_aug <= 0.5\nentropy = 0.97\nsamples = 255\nvalue = [252.0, 162.0]", fillcolor="#f6d2b8"] ;
3 -> 61 ;
62 [label="duration <= 184.5\nentropy = 0.98\nsamples = 211\nvalue = [198, 142]", fillcolor="#f8dbc7"] ;
61 -> 62 ;
63 [label="campaign <= 1.5\nentropy = 0.24\nsamples = 75\nvalue = [99.0, 4.0]", fillcolor="#e68641"] ;
62 -> 63 ;
64 [label="entropy = 0.0\nsamples = 52\nvalue = [72, 0]", fillcolor="#e58139"] ;
63 -> 64 ;
65 [label="euribor3m <= 0.93\nentropy = 0.55\nsamples = 23\nvalue = [27, 4]", fillcolor="#e99456"] ;
63 -> 65 ;
66 [label="job_retired <= 0.5\nentropy = 0.79\nsamples = 15\nvalue = [13, 4]", fillcolor="#eda876"] ;
65 -> 66 ;
67 [label="education_university.degree <= 0.5\nentropy = 0.59\nsamples = 13\nvalue = [12, 2]", fillcolor="#e9965a"] ;
66 -> 67 ;
68 [label="entropy = 0.0\nsamples = 5\nvalue = [5, 0]", fillcolor="#e58139"] ;
67 -> 68 ;
69 [label="entropy = 0.76\nsamples = 8\nvalue = [7, 2]", fillcolor="#eca572"] ;
67 -> 69 ;
70 [label="education_high.school <= 0.5\nentropy = 0.92\nsamples = 2\nvalue = [1, 2]", fillcolor="#9ccef2"] ;
66 -> 70 ;
71 [label="entropy = 0.0\nsamples = 1\nvalue = [1, 0]", fillcolor="#e58139"] ;
70 -> 71 ;
72 [label="entropy = 0.0\nsamples = 1\nvalue = [0, 2]", fillcolor="#399de5"] ;
70 -> 72 ;
73 [label="entropy = 0.0\nsamples = 8\nvalue = [14, 0]", fillcolor="#e58139"] ;
65 -> 73 ;
74 [label="campaign <= 5.0\nentropy = 0.98\nsamples = 136\nvalue = [99, 138]", fillcolor="#c7e3f8"] ;
62 -> 74 ;
75 [label="day_of_week_thu <= 0.5\nentropy = 0.99\nsamples = 131\nvalue = [99, 128]", fillcolor="#d2e9f9"] ;
74 -> 75 ;
76 [label="duration <= 265.5\nentropy = 0.96\nsamples = 101\nvalue = [67.0, 109.0]", fillcolor="#b3d9f5"] ;
75 -> 76 ;
77 [label="campaign <= 1.5\nentropy = 0.99\nsamples = 30\nvalue = [30.0, 25.0]", fillcolor="#fbeade"] ;
76 -> 77 ;
78 [label="entropy = 0.85\nsamples = 11\nvalue = [6, 16]", fillcolor="#83c2ef"] ;
77 -> 78 ;
79 [label="entropy = 0.85\nsamples = 19\nvalue = [24, 9]", fillcolor="#efb083"] ;
77 -> 79 ;
80 [label="contact_telephone <= 0.5\nentropy = 0.89\nsamples = 71\nvalue = [37, 84]", fillcolor="#90c8f0"] ;
76 -> 80 ;
81 [label="entropy = 0.85\nsamples = 63\nvalue = [29, 77]", fillcolor="#84c2ef"] ;
80 -> 81 ;
82 [label="entropy = 1.0\nsamples = 8\nvalue = [8, 7]", fillcolor="#fcefe6"] ;
80 -> 82 ;
83 [label="duration <= 864.0\nentropy = 0.95\nsamples = 30\nvalue = [32, 19]", fillcolor="#f4ccaf"] ;
75 -> 83 ;
84 [label="euribor3m <= 0.78\nentropy = 0.93\nsamples = 28\nvalue = [32.0, 17.0]", fillcolor="#f3c4a2"] ;
83 -> 84 ;
85 [label="entropy = 0.0\nsamples = 4\nvalue = [11, 0]", fillcolor="#e58139"] ;
84 -> 85 ;
86 [label="entropy = 0.99\nsamples = 24\nvalue = [21.0, 17.0]", fillcolor="#fae7d9"] ;
84 -> 86 ;
87 [label="entropy = 0.0\nsamples = 2\nvalue = [0, 2]", fillcolor="#399de5"] ;
83 -> 87 ;
88 [label="entropy = 0.0\nsamples = 5\nvalue = [0, 10]", fillcolor="#399de5"] ;
74 -> 88 ;
89 [label="duration <= 303.0\nentropy = 0.84\nsamples = 44\nvalue = [54, 20]", fillcolor="#efb082"] ;
61 -> 89 ;
90 [label="job_blue-collar <= 0.5\nentropy = 0.3\nsamples = 34\nvalue = [54, 3]", fillcolor="#e68844"] ;
89 -> 90 ;
91 [label="contact_cellular <= 0.5\nentropy = 0.34\nsamples = 29\nvalue = [44.0, 3.0]", fillcolor="#e78a46"] ;
90 -> 91 ;
92 [label="entropy = 0.0\nsamples = 14\nvalue = [23, 0]", fillcolor="#e58139"] ;
91 -> 92 ;
93 [label="job_retired <= 0.5\nentropy = 0.54\nsamples = 15\nvalue = [21, 3]", fillcolor="#e99355"] ;
91 -> 93 ;
94 [label="job_self-employed <= 0.5\nentropy = 0.57\nsamples = 14\nvalue = [19, 3]", fillcolor="#e99558"] ;
93 -> 94 ;
95 [label="entropy = 0.47\nsamples = 12\nvalue = [18, 2]", fillcolor="#e88f4f"] ;
94 -> 95 ;
96 [label="entropy = 1.0\nsamples = 2\nvalue = [1, 1]", fillcolor="#ffffff"] ;
94 -> 96 ;
97 [label="entropy = 0.0\nsamples = 1\nvalue = [2, 0]", fillcolor="#e58139"] ;
93 -> 97 ;
98 [label="entropy = 0.0\nsamples = 5\nvalue = [10, 0]", fillcolor="#e58139"] ;
90 -> 98 ;
99 [label="entropy = 0.0\nsamples = 10\nvalue = [0, 17]", fillcolor="#399de5"] ;
89 -> 99 ;
100 [label="education_high.school <= 0.5\nentropy = 0.93\nsamples = 564\nvalue = [589, 315]", fillcolor="#f3c4a3"] ;
2 -> 100 ;
101 [label="euribor3m <= 0.99\nentropy = 0.9\nsamples = 432\nvalue = [470.0, 220.0]", fillcolor="#f1bc96"] ;
100 -> 101 ;
102 [label="day_of_week_tue <= 0.5\nentropy = 0.88\nsamples = 379\nvalue = [426, 181]", fillcolor="#f0b78d"] ;
101 -> 102 ;
103 [label="duration <= 210.5\nentropy = 0.84\nsamples = 295\nvalue = [342.0, 125.0]", fillcolor="#efaf81"] ;
102 -> 103 ;
104 [label="job_self-employed <= 0.5\nentropy = 0.52\nsamples = 165\nvalue = [225, 30]", fillcolor="#e89253"] ;
103 -> 104 ;
105 [label="education_basic.4y <= 0.5\nentropy = 0.54\nsamples = 155\nvalue = [213, 30]", fillcolor="#e99355"] ;
104 -> 105 ;
106 [label="job_student <= 0.5\nentropy = 0.47\nsamples = 135\nvalue = [195, 22]", fillcolor="#e88f4f"] ;
105 -> 106 ;
107 [label="entropy = 0.5\nsamples = 125\nvalue = [176, 22]", fillcolor="#e89152"] ;
106 -> 107 ;
108 [label="entropy = 0.0\nsamples = 10\nvalue = [19, 0]", fillcolor="#e58139"] ;
106 -> 108 ;
109 [label="euribor3m <= 0.71\nentropy = 0.89\nsamples = 20\nvalue = [18, 8]", fillcolor="#f1b991"] ;
105 -> 109 ;
110 [label="entropy = 0.0\nsamples = 2\nvalue = [0, 2]", fillcolor="#399de5"] ;
109 -> 110 ;
111 [label="entropy = 0.81\nsamples = 18\nvalue = [18, 6]", fillcolor="#eeab7b"] ;
109 -> 111 ;
112 [label="entropy = 0.0\nsamples = 10\nvalue = [12, 0]", fillcolor="#e58139"] ;
104 -> 112 ;
113 [label="day_of_week_fri <= 0.5\nentropy = 0.99\nsamples = 130\nvalue = [117.0, 95.0]", fillcolor="#fae7da"] ;
103 -> 113 ;
114 [label="job_self-employed <= 0.5\nentropy = 0.98\nsamples = 99\nvalue = [95.0, 67.0]", fillcolor="#f7dac5"] ;
113 -> 114 ;
115 [label="campaign <= 7.5\nentropy = 0.99\nsamples = 94\nvalue = [86, 65]", fillcolor="#f9e0cf"] ;
114 -> 115 ;
116 [label="entropy = 0.99\nsamples = 93\nvalue = [84, 65]", fillcolor="#f9e2d2"] ;
115 -> 116 ;
117 [label="entropy = 0.0\nsamples = 1\nvalue = [2, 0]", fillcolor="#e58139"] ;
115 -> 117 ;
118 [label="emp_var_rate <= -3.2\nentropy = 0.68\nsamples = 5\nvalue = [9, 2]", fillcolor="#eb9d65"] ;
114 -> 118 ;
119 [label="entropy = 0.0\nsamples = 2\nvalue = [6, 0]", fillcolor="#e58139"] ;
118 -> 119 ;
120 [label="entropy = 0.97\nsamples = 3\nvalue = [3, 2]", fillcolor="#f6d5bd"] ;
118 -> 120 ;
121 [label="education_basic.4y <= 0.5\nentropy = 0.99\nsamples = 31\nvalue = [22.0, 28.0]", fillcolor="#d5eaf9"] ;
113 -> 121 ;
122 [label="job_student <= 0.5\nentropy = 1.0\nsamples = 27\nvalue = [22, 22]", fillcolor="#ffffff"] ;
121 -> 122 ;
123 [label="entropy = 1.0\nsamples = 26\nvalue = [22, 19]", fillcolor="#fbeee4"] ;
122 -> 123 ;
124 [label="entropy = 0.0\nsamples = 1\nvalue = [0, 3]", fillcolor="#399de5"] ;
122 -> 124 ;
125 [label="entropy = 0.0\nsamples = 4\nvalue = [0, 6]", fillcolor="#399de5"] ;
121 -> 125 ;
126 [label="contact_cellular <= 0.5\nentropy = 0.97\nsamples = 84\nvalue = [84, 56]", fillcolor="#f6d5bd"] ;
102 -> 126 ;
127 [label="job_admin. <= 0.5\nentropy = 0.65\nsamples = 14\nvalue = [20, 4]", fillcolor="#ea9a61"] ;
126 -> 127 ;
128 [label="duration <= 102.5\nentropy = 0.72\nsamples = 9\nvalue = [12, 3]", fillcolor="#eca06a"] ;
127 -> 128 ;
129 [label="entropy = 0.0\nsamples = 1\nvalue = [0, 1]", fillcolor="#399de5"] ;
128 -> 129 ;
130 [label="job_retired <= 0.5\nentropy = 0.59\nsamples = 8\nvalue = [12, 2]", fillcolor="#e9965a"] ;
128 -> 130 ;
131 [label="entropy = 0.41\nsamples = 6\nvalue = [11, 1]", fillcolor="#e78c4b"] ;
130 -> 131 ;
132 [label="entropy = 1.0\nsamples = 2\nvalue = [1, 1]", fillcolor="#ffffff"] ;
130 -> 132 ;
133 [label="euribor3m <= 0.87\nentropy = 0.5\nsamples = 5\nvalue = [8, 1]", fillcolor="#e89152"] ;
127 -> 133 ;
134 [label="cons_conf_idx <= -30.6\nentropy = 0.81\nsamples = 3\nvalue = [3, 1]", fillcolor="#eeab7b"] ;
133 -> 134 ;
135 [label="entropy = 1.0\nsamples = 2\nvalue = [1, 1]", fillcolor="#ffffff"] ;
134 -> 135 ;
136 [label="entropy = 0.0\nsamples = 1\nvalue = [2, 0]", fillcolor="#e58139"] ;
134 -> 136 ;
137 [label="entropy = 0.0\nsamples = 2\nvalue = [5, 0]", fillcolor="#e58139"] ;
133 -> 137 ;
138 [label="loan_unknown <= 0.5\nentropy = 0.99\nsamples = 70\nvalue = [64, 52]", fillcolor="#fae7da"] ;
126 -> 138 ;
139 [label="marital_single <= 0.5\nentropy = 0.98\nsamples = 66\nvalue = [64, 46]", fillcolor="#f8dcc7"] ;
138 -> 139 ;
140 [label="age <= 71.5\nentropy = 0.99\nsamples = 42\nvalue = [32, 38]", fillcolor="#e0f0fb"] ;
139 -> 140 ;
141 [label="entropy = 0.96\nsamples = 39\nvalue = [24, 38]", fillcolor="#b6dbf5"] ;
140 -> 141 ;
142 [label="entropy = 0.0\nsamples = 3\nvalue = [8, 0]", fillcolor="#e58139"] ;
140 -> 142 ;
143 [label="campaign <= 2.5\nentropy = 0.72\nsamples = 24\nvalue = [32, 8]", fillcolor="#eca06a"] ;
139 -> 143 ;
144 [label="entropy = 0.59\nsamples = 21\nvalue = [30, 5]", fillcolor="#e9965a"] ;
143 -> 144 ;
145 [label="entropy = 0.97\nsamples = 3\nvalue = [2, 3]", fillcolor="#bddef6"] ;
143 -> 145 ;
146 [label="entropy = 0.0\nsamples = 4\nvalue = [0, 6]", fillcolor="#399de5"] ;
138 -> 146 ;
147 [label="loan_no <= 0.5\nentropy = 1.0\nsamples = 53\nvalue = [44, 39]", fillcolor="#fcf1e8"] ;
101 -> 147 ;
148 [label="duration <= 922.0\nentropy = 0.54\nsamples = 10\nvalue = [14, 2]", fillcolor="#e99355"] ;
147 -> 148 ;
149 [label="entropy = 0.0\nsamples = 9\nvalue = [14, 0]", fillcolor="#e58139"] ;
148 -> 149 ;
150 [label="entropy = 0.0\nsamples = 1\nvalue = [0, 2]", fillcolor="#399de5"] ;
148 -> 150 ;
151 [label="duration <= 172.5\nentropy = 0.99\nsamples = 43\nvalue = [30, 37]", fillcolor="#daecfa"] ;
147 -> 151 ;
152 [label="entropy = 0.0\nsamples = 10\nvalue = [16, 0]", fillcolor="#e58139"] ;
151 -> 152 ;
153 [label="job_entrepreneur <= 0.5\nentropy = 0.85\nsamples = 33\nvalue = [14.0, 37.0]", fillcolor="#84c2ef"] ;
151 -> 153 ;
154 [label="job_services <= 0.5\nentropy = 0.89\nsamples = 31\nvalue = [14, 31]", fillcolor="#92c9f1"] ;
153 -> 154 ;
155 [label="job_management <= 0.5\nentropy = 0.88\nsamples = 30\nvalue = [13, 31]", fillcolor="#8cc6f0"] ;
154 -> 155 ;
156 [label="entropy = 0.85\nsamples = 29\nvalue = [12.0, 31.0]", fillcolor="#86c3ef"] ;
155 -> 156 ;
157 [label="entropy = 0.0\nsamples = 1\nvalue = [1, 0]", fillcolor="#e58139"] ;
155 -> 157 ;
158 [label="entropy = 0.0\nsamples = 1\nvalue = [1, 0]", fillcolor="#e58139"] ;
154 -> 158 ;
159 [label="entropy = 0.0\nsamples = 2\nvalue = [0, 6]", fillcolor="#399de5"] ;
153 -> 159 ;
160 [label="job_unemployed <= 0.5\nentropy = 0.99\nsamples = 132\nvalue = [119, 95]", fillcolor="#fae6d7"] ;
100 -> 160 ;
161 [label="job_admin. <= 0.5\nentropy = 1.0\nsamples = 119\nvalue = [103, 91]", fillcolor="#fcf0e8"] ;
160 -> 161 ;
162 [label="loan_no <= 0.5\nentropy = 0.97\nsamples = 76\nvalue = [73, 50]", fillcolor="#f7d7c1"] ;
161 -> 162 ;
163 [label="campaign <= 2.5\nentropy = 0.81\nsamples = 7\nvalue = [3, 9]", fillcolor="#7bbeee"] ;
162 -> 163 ;
164 [label="day_of_week_wed <= 0.5\nentropy = 0.97\nsamples = 4\nvalue = [3, 2]", fillcolor="#f6d5bd"] ;
163 -> 164 ;
165 [label="entropy = 0.0\nsamples = 3\nvalue = [3, 0]", fillcolor="#e58139"] ;
164 -> 165 ;
166 [label="entropy = 0.0\nsamples = 1\nvalue = [0, 2]", fillcolor="#399de5"] ;
164 -> 166 ;
167 [label="entropy = 0.0\nsamples = 3\nvalue = [0, 7]", fillcolor="#399de5"] ;
163 -> 167 ;
168 [label="job_management <= 0.5\nentropy = 0.95\nsamples = 69\nvalue = [70, 41]", fillcolor="#f4cbad"] ;
162 -> 168 ;
169 [label="marital_divorced <= 0.5\nentropy = 0.93\nsamples = 66\nvalue = [70, 37]", fillcolor="#f3c4a2"] ;
168 -> 169 ;
170 [label="cons_price_idx <= 92.45\nentropy = 0.95\nsamples = 60\nvalue = [62, 37]", fillcolor="#f5ccaf"] ;
169 -> 170 ;
171 [label="entropy = 0.88\nsamples = 41\nvalue = [47, 20]", fillcolor="#f0b78d"] ;
170 -> 171 ;
172 [label="entropy = 1.0\nsamples = 19\nvalue = [15, 17]", fillcolor="#e8f3fc"] ;
170 -> 172 ;
173 [label="entropy = 0.0\nsamples = 6\nvalue = [8, 0]", fillcolor="#e58139"] ;
169 -> 173 ;
174 [label="entropy = 0.0\nsamples = 3\nvalue = [0, 4]", fillcolor="#399de5"] ;
168 -> 174 ;
175 [label="loan_unknown <= 0.5\nentropy = 0.98\nsamples = 43\nvalue = [30, 41]", fillcolor="#cae5f8"] ;
161 -> 175 ;
176 [label="marital_married <= 0.5\nentropy = 0.99\nsamples = 41\nvalue = [30, 38]", fillcolor="#d5eafa"] ;
175 -> 176 ;
177 [label="campaign <= 3.5\nentropy = 0.8\nsamples = 15\nvalue = [6, 19]", fillcolor="#78bced"] ;
176 -> 177 ;
178 [label="euribor3m <= 0.79\nentropy = 0.74\nsamples = 14\nvalue = [5, 19]", fillcolor="#6db7ec"] ;
177 -> 178 ;
179 [label="entropy = 0.0\nsamples = 5\nvalue = [0, 7]", fillcolor="#399de5"] ;
178 -> 179 ;
180 [label="entropy = 0.87\nsamples = 9\nvalue = [5, 12]", fillcolor="#8bc6f0"] ;
178 -> 180 ;
181 [label="entropy = 0.0\nsamples = 1\nvalue = [1, 0]", fillcolor="#e58139"] ;
177 -> 181 ;
182 [label="loan_yes <= 0.5\nentropy = 0.99\nsamples = 26\nvalue = [24, 19]", fillcolor="#fae5d6"] ;
176 -> 182 ;
183 [label="cons_price_idx <= 92.4\nentropy = 1.0\nsamples = 22\nvalue = [20, 17]", fillcolor="#fbece1"] ;
182 -> 183 ;
184 [label="entropy = 0.96\nsamples = 10\nvalue = [7, 11]", fillcolor="#b7dbf6"] ;
183 -> 184 ;
185 [label="entropy = 0.9\nsamples = 12\nvalue = [13, 6]", fillcolor="#f1bb94"] ;
183 -> 185 ;
186 [label="euribor3m <= 0.72\nentropy = 0.92\nsamples = 4\nvalue = [4, 2]", fillcolor="#f2c09c"] ;
182 -> 186 ;
187 [label="entropy = 0.0\nsamples = 1\nvalue = [0, 2]", fillcolor="#399de5"] ;
186 -> 187 ;
188 [label="entropy = 0.0\nsamples = 3\nvalue = [4, 0]", fillcolor="#e58139"] ;
186 -> 188 ;
189 [label="entropy = 0.0\nsamples = 2\nvalue = [0, 3]", fillcolor="#399de5"] ;
175 -> 189 ;
190 [label="duration <= 292.5\nentropy = 0.72\nsamples = 13\nvalue = [16, 4]", fillcolor="#eca06a"] ;
160 -> 190 ;
191 [label="entropy = 0.0\nsamples = 9\nvalue = [13, 0]", fillcolor="#e58139"] ;
190 -> 191 ;
192 [label="marital_single <= 0.5\nentropy = 0.99\nsamples = 4\nvalue = [3, 4]", fillcolor="#cee6f8"] ;
190 -> 192 ;
193 [label="day_of_week_wed <= 0.5\nentropy = 0.72\nsamples = 3\nvalue = [1, 4]", fillcolor="#6ab6ec"] ;
192 -> 193 ;
194 [label="entropy = 0.0\nsamples = 1\nvalue = [0, 2]", fillcolor="#399de5"] ;
193 -> 194 ;
195 [label="housing_yes <= 0.5\nentropy = 0.92\nsamples = 2\nvalue = [1, 2]", fillcolor="#9ccef2"] ;
193 -> 195 ;
196 [label="entropy = 0.0\nsamples = 1\nvalue = [0, 2]", fillcolor="#399de5"] ;
195 -> 196 ;
197 [label="entropy = 0.0\nsamples = 1\nvalue = [1, 0]", fillcolor="#e58139"] ;
195 -> 197 ;
198 [label="entropy = 0.0\nsamples = 1\nvalue = [2, 0]", fillcolor="#e58139"] ;
192 -> 198 ;
199 [label="euribor3m <= 0.88\nentropy = 1.0\nsamples = 948\nvalue = [740.0, 789.0]", fillcolor="#f3f9fd"] ;
1 -> 199 ;
200 [label="duration <= 168.5\nentropy = 1.0\nsamples = 744\nvalue = [607, 587]", fillcolor="#fefbf8"] ;
199 -> 200 ;
201 [label="month_oct <= 0.5\nentropy = 0.71\nsamples = 279\nvalue = [359, 87]", fillcolor="#eba069"] ;
200 -> 201 ;
202 [label="poutcome_failure <= 0.5\nentropy = 0.64\nsamples = 238\nvalue = [313, 60]", fillcolor="#ea995f"] ;
201 -> 202 ;
203 [label="education_unknown <= 0.5\nentropy = 0.9\nsamples = 83\nvalue = [81, 38]", fillcolor="#f1bc96"] ;
202 -> 203 ;
204 [label="emp_var_rate <= -3.2\nentropy = 0.86\nsamples = 79\nvalue = [81, 32]", fillcolor="#efb387"] ;
203 -> 204 ;
205 [label="day_of_week_mon <= 0.5\nentropy = 0.99\nsamples = 16\nvalue = [12, 10]", fillcolor="#fbeade"] ;
204 -> 205 ;
206 [label="campaign <= 3.0\nentropy = 0.92\nsamples = 10\nvalue = [4, 8]", fillcolor="#9ccef2"] ;
205 -> 206 ;
207 [label="entropy = 0.72\nsamples = 9\nvalue = [2, 8]", fillcolor="#6ab6ec"] ;
206 -> 207 ;
208 [label="entropy = 0.0\nsamples = 1\nvalue = [2, 0]", fillcolor="#e58139"] ;
206 -> 208 ;
209 [label="education_high.school <= 0.5\nentropy = 0.72\nsamples = 6\nvalue = [8, 2]", fillcolor="#eca06a"] ;
205 -> 209 ;
210 [label="entropy = 0.0\nsamples = 3\nvalue = [6, 0]", fillcolor="#e58139"] ;
209 -> 210 ;
211 [label="entropy = 1.0\nsamples = 3\nvalue = [2, 2]", fillcolor="#ffffff"] ;
209 -> 211 ;
212 [label="cons_price_idx <= 94.13\nentropy = 0.8\nsamples = 63\nvalue = [69, 22]", fillcolor="#eda978"] ;
204 -> 212 ;
213 [label="job_retired <= 0.5\nentropy = 0.67\nsamples = 53\nvalue = [61, 13]", fillcolor="#eb9c63"] ;
212 -> 213 ;
214 [label="entropy = 0.61\nsamples = 46\nvalue = [57, 10]", fillcolor="#ea975c"] ;
213 -> 214 ;
215 [label="entropy = 0.99\nsamples = 7\nvalue = [4, 3]", fillcolor="#f8e0ce"] ;
213 -> 215 ;
216 [label="previous <= 2.5\nentropy = 1.0\nsamples = 10\nvalue = [8, 9]", fillcolor="#e9f4fc"] ;
212 -> 216 ;
217 [label="entropy = 0.76\nsamples = 4\nvalue = [2, 7]", fillcolor="#72b9ec"] ;
216 -> 217 ;
218 [label="entropy = 0.81\nsamples = 6\nvalue = [6, 2]", fillcolor="#eeab7b"] ;
216 -> 218 ;
219 [label="entropy = 0.0\nsamples = 4\nvalue = [0, 6]", fillcolor="#399de5"] ;
203 -> 219 ;
220 [label="education_professional.course <= 0.5\nentropy = 0.43\nsamples = 155\nvalue = [232, 22]", fillcolor="#e78d4c"] ;
202 -> 220 ;
221 [label="euribor3m <= 0.72\nentropy = 0.46\nsamples = 140\nvalue = [207, 22]", fillcolor="#e88e4e"] ;
220 -> 221 ;
222 [label="age <= 26.0\nentropy = 0.65\nsamples = 51\nvalue = [65, 13]", fillcolor="#ea9a61"] ;
221 -> 222 ;
223 [label="job_admin. <= 0.5\nentropy = 0.97\nsamples = 6\nvalue = [4, 6]", fillcolor="#bddef6"] ;
222 -> 223 ;
224 [label="entropy = 0.72\nsamples = 4\nvalue = [4, 1]", fillcolor="#eca06a"] ;
223 -> 224 ;
225 [label="entropy = 0.0\nsamples = 2\nvalue = [0, 5]", fillcolor="#399de5"] ;
223 -> 225 ;
226 [label="job_admin. <= 0.5\nentropy = 0.48\nsamples = 45\nvalue = [61, 7]", fillcolor="#e88f50"] ;
222 -> 226 ;
227 [label="entropy = 0.59\nsamples = 27\nvalue = [36, 6]", fillcolor="#e9965a"] ;
226 -> 227 ;
228 [label="entropy = 0.24\nsamples = 18\nvalue = [25, 1]", fillcolor="#e68641"] ;
226 -> 228 ;
229 [label="euribor3m <= 0.88\nentropy = 0.33\nsamples = 89\nvalue = [142, 9]", fillcolor="#e78946"] ;
221 -> 229 ;
230 [label="marital_married <= 0.5\nentropy = 0.14\nsamples = 59\nvalue = [99, 2]", fillcolor="#e6843d"] ;
229 -> 230 ;
231 [label="entropy = 0.27\nsamples = 26\nvalue = [41, 2]", fillcolor="#e68743"] ;
230 -> 231 ;
232 [label="entropy = 0.0\nsamples = 33\nvalue = [58, 0]", fillcolor="#e58139"] ;
230 -> 232 ;
233 [label="cons_price_idx <= 93.2\nentropy = 0.58\nsamples = 30\nvalue = [43.0, 7.0]", fillcolor="#e99659"] ;
229 -> 233 ;
234 [label="entropy = 0.74\nsamples = 20\nvalue = [23, 6]", fillcolor="#eca26d"] ;
233 -> 234 ;
235 [label="entropy = 0.28\nsamples = 10\nvalue = [20, 1]", fillcolor="#e68743"] ;
233 -> 235 ;
236 [label="entropy = 0.0\nsamples = 15\nvalue = [25, 0]", fillcolor="#e58139"] ;
220 -> 236 ;
237 [label="job_blue-collar <= 0.5\nentropy = 0.95\nsamples = 41\nvalue = [46, 27]", fillcolor="#f4cbad"] ;
201 -> 237 ;
238 [label="poutcome_failure <= 0.5\nentropy = 0.98\nsamples = 37\nvalue = [37, 27]", fillcolor="#f8ddc9"] ;
237 -> 238 ;
239 [label="duration <= 107.5\nentropy = 0.99\nsamples = 17\nvalue = [12, 15]", fillcolor="#d7ebfa"] ;
238 -> 239 ;
240 [label="entropy = 0.0\nsamples = 2\nvalue = [0, 4]", fillcolor="#399de5"] ;
239 -> 240 ;
241 [label="marital_single <= 0.5\nentropy = 1.0\nsamples = 15\nvalue = [12, 11]", fillcolor="#fdf5ef"] ;
239 -> 241 ;
242 [label="marital_married <= 0.5\nentropy = 0.95\nsamples = 9\nvalue = [6, 10]", fillcolor="#b0d8f5"] ;
241 -> 242 ;
243 [label="entropy = 0.0\nsamples = 2\nvalue = [2, 0]", fillcolor="#e58139"] ;
242 -> 243 ;
244 [label="entropy = 0.86\nsamples = 7\nvalue = [4, 10]", fillcolor="#88c4ef"] ;
242 -> 244 ;
245 [label="day_of_week_thu <= 0.5\nentropy = 0.59\nsamples = 6\nvalue = [6, 1]", fillcolor="#e9965a"] ;
241 -> 245 ;
246 [label="entropy = 0.0\nsamples = 5\nvalue = [6, 0]", fillcolor="#e58139"] ;
245 -> 246 ;
247 [label="entropy = 0.0\nsamples = 1\nvalue = [0, 1]", fillcolor="#399de5"] ;
245 -> 247 ;
248 [label="education_university.degree <= 0.5\nentropy = 0.91\nsamples = 20\nvalue = [25, 12]", fillcolor="#f1bd98"] ;
238 -> 248 ;
249 [label="education_professional.course <= 0.5\nentropy = 0.77\nsamples = 11\nvalue = [17, 5]", fillcolor="#eda673"] ;
248 -> 249 ;
250 [label="duration <= 147.5\nentropy = 0.81\nsamples = 7\nvalue = [9, 3]", fillcolor="#eeab7b"] ;
249 -> 250 ;
251 [label="entropy = 0.47\nsamples = 6\nvalue = [9, 1]", fillcolor="#e88f4f"] ;
250 -> 251 ;
252 [label="entropy = 0.0\nsamples = 1\nvalue = [0, 2]", fillcolor="#399de5"] ;
250 -> 252 ;
253 [label="campaign <= 1.5\nentropy = 0.72\nsamples = 4\nvalue = [8, 2]", fillcolor="#eca06a"] ;
249 -> 253 ;
254 [label="entropy = 0.0\nsamples = 2\nvalue = [5, 0]", fillcolor="#e58139"] ;
253 -> 254 ;
255 [label="entropy = 0.97\nsamples = 2\nvalue = [3, 2]", fillcolor="#f6d5bd"] ;
253 -> 255 ;
256 [label="day_of_week_wed <= 0.5\nentropy = 1.0\nsamples = 9\nvalue = [8, 7]", fillcolor="#fcefe6"] ;
248 -> 256 ;
257 [label="day_of_week_tue <= 0.5\nentropy = 1.0\nsamples = 8\nvalue = [6, 7]", fillcolor="#e3f1fb"] ;
256 -> 257 ;
258 [label="entropy = 1.0\nsamples = 7\nvalue = [6, 6]", fillcolor="#ffffff"] ;
257 -> 258 ;
259 [label="entropy = 0.0\nsamples = 1\nvalue = [0, 1]", fillcolor="#399de5"] ;
257 -> 259 ;
260 [label="entropy = 0.0\nsamples = 1\nvalue = [2, 0]", fillcolor="#e58139"] ;
256 -> 260 ;
261 [label="entropy = 0.0\nsamples = 4\nvalue = [9, 0]", fillcolor="#e58139"] ;
237 -> 261 ;
262 [label="education_university.degree <= 0.5\nentropy = 0.92\nsamples = 465\nvalue = [248, 500]", fillcolor="#9bcef2"] ;
200 -> 262 ;
263 [label="marital_divorced <= 0.5\nentropy = 0.87\nsamples = 293\nvalue = [138, 330]", fillcolor="#8cc6f0"] ;
262 -> 263 ;
264 [label="loan_no <= 0.5\nentropy = 0.85\nsamples = 263\nvalue = [118, 306]", fillcolor="#85c3ef"] ;
263 -> 264 ;
265 [label="loan_yes <= 0.5\nentropy = 0.57\nsamples = 51\nvalue = [12, 77]", fillcolor="#58ace9"] ;
264 -> 265 ;
266 [label="campaign <= 2.5\nentropy = 1.0\nsamples = 8\nvalue = [7, 8]", fillcolor="#e6f3fc"] ;
265 -> 266 ;
267 [label="day_of_week_wed <= 0.5\nentropy = 0.54\nsamples = 4\nvalue = [1, 7]", fillcolor="#55abe9"] ;
266 -> 267 ;
268 [label="entropy = 0.0\nsamples = 2\nvalue = [0, 5]", fillcolor="#399de5"] ;
267 -> 268 ;
269 [label="entropy = 0.92\nsamples = 2\nvalue = [1, 2]", fillcolor="#9ccef2"] ;
267 -> 269 ;
270 [label="nr_employed <= 4977.6\nentropy = 0.59\nsamples = 4\nvalue = [6, 1]", fillcolor="#e9965a"] ;
266 -> 270 ;
271 [label="entropy = 0.0\nsamples = 1\nvalue = [3, 0]", fillcolor="#e58139"] ;
270 -> 271 ;
272 [label="entropy = 0.81\nsamples = 3\nvalue = [3, 1]", fillcolor="#eeab7b"] ;
270 -> 272 ;
273 [label="month_jul <= 0.5\nentropy = 0.36\nsamples = 43\nvalue = [5, 69]", fillcolor="#47a4e7"] ;
265 -> 273 ;
274 [label="cons_price_idx <= 93.56\nentropy = 0.28\nsamples = 37\nvalue = [3, 59]", fillcolor="#43a2e6"] ;
273 -> 274 ;
275 [label="entropy = 0.44\nsamples = 22\nvalue = [3, 30]", fillcolor="#4da7e8"] ;
274 -> 275 ;
276 [label="entropy = 0.0\nsamples = 15\nvalue = [0, 29]", fillcolor="#399de5"] ;
274 -> 276 ;
277 [label="duration <= 357.0\nentropy = 0.65\nsamples = 6\nvalue = [2, 10]", fillcolor="#61b1ea"] ;
273 -> 277 ;
278 [label="entropy = 1.0\nsamples = 3\nvalue = [2, 2]", fillcolor="#ffffff"] ;
277 -> 278 ;
279 [label="entropy = 0.0\nsamples = 3\nvalue = [0, 8]", fillcolor="#399de5"] ;
277 -> 279 ;
280 [label="poutcome_failure <= 0.5\nentropy = 0.9\nsamples = 212\nvalue = [106.0, 229.0]", fillcolor="#95caf1"] ;
264 -> 280 ;
281 [label="job_technician <= 0.5\nentropy = 0.7\nsamples = 123\nvalue = [36, 153]", fillcolor="#68b4eb"] ;
280 -> 281 ;
282 [label="month_jun <= 0.5\nentropy = 0.61\nsamples = 99\nvalue = [22, 123]", fillcolor="#5cafea"] ;
281 -> 282 ;
283 [label="entropy = 0.66\nsamples = 89\nvalue = [22, 108]", fillcolor="#61b1ea"] ;
282 -> 283 ;
284 [label="entropy = 0.0\nsamples = 10\nvalue = [0, 15]", fillcolor="#399de5"] ;
282 -> 284 ;
285 [label="day_of_week_wed <= 0.5\nentropy = 0.9\nsamples = 24\nvalue = [14.0, 30.0]", fillcolor="#95cbf1"] ;
281 -> 285 ;
286 [label="entropy = 0.96\nsamples = 19\nvalue = [14, 23]", fillcolor="#b2d9f5"] ;
285 -> 286 ;
287 [label="entropy = 0.0\nsamples = 5\nvalue = [0, 7]", fillcolor="#399de5"] ;
285 -> 287 ;
288 [label="marital_single <= 0.5\nentropy = 1.0\nsamples = 89\nvalue = [70, 76]", fillcolor="#eff7fd"] ;
280 -> 288 ;
289 [label="euribor3m <= 0.64\nentropy = 0.97\nsamples = 58\nvalue = [41, 61]", fillcolor="#bedff6"] ;
288 -> 289 ;
290 [label="entropy = 0.0\nsamples = 3\nvalue = [8, 0]", fillcolor="#e58139"] ;
289 -> 290 ;
291 [label="entropy = 0.94\nsamples = 55\nvalue = [33, 61]", fillcolor="#a4d2f3"] ;
289 -> 291 ;
292 [label="job_student <= 0.5\nentropy = 0.93\nsamples = 31\nvalue = [29.0, 15.0]", fillcolor="#f2c29f"] ;
288 -> 292 ;
293 [label="entropy = 1.0\nsamples = 21\nvalue = [14, 13]", fillcolor="#fdf6f1"] ;
292 -> 293 ;
294 [label="entropy = 0.52\nsamples = 10\nvalue = [15, 2]", fillcolor="#e89253"] ;
292 -> 294 ;
295 [label="poutcome_success <= 0.5\nentropy = 0.99\nsamples = 30\nvalue = [20, 24]", fillcolor="#deeffb"] ;
263 -> 295 ;
296 [label="campaign <= 2.5\nentropy = 0.95\nsamples = 15\nvalue = [14, 8]", fillcolor="#f4c9aa"] ;
295 -> 296 ;
297 [label="month_nov <= 0.5\nentropy = 0.88\nsamples = 13\nvalue = [14, 6]", fillcolor="#f0b78e"] ;
296 -> 297 ;
298 [label="education_high.school <= 0.5\nentropy = 0.57\nsamples = 9\nvalue = [13, 2]", fillcolor="#e99457"] ;
297 -> 298 ;
299 [label="entropy = 0.0\nsamples = 5\nvalue = [9, 0]", fillcolor="#e58139"] ;
298 -> 299 ;
300 [label="entropy = 0.92\nsamples = 4\nvalue = [4, 2]", fillcolor="#f2c09c"] ;
298 -> 300 ;
301 [label="day_of_week_wed <= 0.5\nentropy = 0.72\nsamples = 4\nvalue = [1, 4]", fillcolor="#6ab6ec"] ;
297 -> 301 ;
302 [label="entropy = 0.0\nsamples = 3\nvalue = [0, 4]", fillcolor="#399de5"] ;
301 -> 302 ;
303 [label="entropy = 0.0\nsamples = 1\nvalue = [1, 0]", fillcolor="#e58139"] ;
301 -> 303 ;
304 [label="entropy = 0.0\nsamples = 2\nvalue = [0, 2]", fillcolor="#399de5"] ;
296 -> 304 ;
305 [label="job_admin. <= 0.5\nentropy = 0.85\nsamples = 15\nvalue = [6, 16]", fillcolor="#83c2ef"] ;
295 -> 305 ;
306 [label="euribor3m <= 0.72\nentropy = 0.72\nsamples = 13\nvalue = [4, 16]", fillcolor="#6ab6ec"] ;
305 -> 306 ;
307 [label="cons_conf_idx <= -37.4\nentropy = 0.99\nsamples = 6\nvalue = [4, 5]", fillcolor="#d7ebfa"] ;
306 -> 307 ;
308 [label="entropy = 0.0\nsamples = 1\nvalue = [3, 0]", fillcolor="#e58139"] ;
307 -> 308 ;
309 [label="entropy = 0.65\nsamples = 5\nvalue = [1, 5]", fillcolor="#61b1ea"] ;
307 -> 309 ;
310 [label="entropy = 0.0\nsamples = 7\nvalue = [0, 11]", fillcolor="#399de5"] ;
306 -> 310 ;
311 [label="entropy = 0.0\nsamples = 2\nvalue = [2, 0]", fillcolor="#e58139"] ;
305 -> 311 ;
312 [label="euribor3m <= 0.87\nentropy = 0.97\nsamples = 172\nvalue = [110, 170]", fillcolor="#b9dcf6"] ;
262 -> 312 ;
313 [label="job_student <= 0.5\nentropy = 0.93\nsamples = 141\nvalue = [80, 150]", fillcolor="#a3d1f3"] ;
312 -> 313 ;
314 [label="loan_no <= 0.5\nentropy = 0.94\nsamples = 138\nvalue = [80, 145]", fillcolor="#a6d3f3"] ;
313 -> 314 ;
315 [label="euribor3m <= 0.67\nentropy = 0.97\nsamples = 23\nvalue = [24, 16]", fillcolor="#f6d5bd"] ;
314 -> 315 ;
316 [label="entropy = 0.0\nsamples = 4\nvalue = [0, 6]", fillcolor="#399de5"] ;
315 -> 316 ;
317 [label="pdays <= 506.0\nentropy = 0.87\nsamples = 19\nvalue = [24, 10]", fillcolor="#f0b58b"] ;
315 -> 317 ;
318 [label="entropy = 1.0\nsamples = 11\nvalue = [9, 8]", fillcolor="#fcf1e9"] ;
317 -> 318 ;
319 [label="entropy = 0.52\nsamples = 8\nvalue = [15, 2]", fillcolor="#e89253"] ;
317 -> 319 ;
320 [label="day_of_week_tue <= 0.5\nentropy = 0.88\nsamples = 115\nvalue = [56, 129]", fillcolor="#8fc8f0"] ;
314 -> 320 ;
321 [label="poutcome_success <= 0.5\nentropy = 0.94\nsamples = 88\nvalue = [49, 87]", fillcolor="#a9d4f4"] ;
320 -> 321 ;
322 [label="entropy = 1.0\nsamples = 35\nvalue = [28, 24]", fillcolor="#fbede3"] ;
321 -> 322 ;
323 [label="entropy = 0.81\nsamples = 53\nvalue = [21, 63]", fillcolor="#7bbeee"] ;
321 -> 323 ;
324 [label="pdays <= 505.5\nentropy = 0.59\nsamples = 27\nvalue = [7, 42]", fillcolor="#5aade9"] ;
320 -> 324 ;
325 [label="entropy = 0.41\nsamples = 18\nvalue = [3, 33]", fillcolor="#4ba6e7"] ;
324 -> 325 ;
326 [label="entropy = 0.89\nsamples = 9\nvalue = [4, 9]", fillcolor="#91c9f1"] ;
324 -> 326 ;
327 [label="entropy = 0.0\nsamples = 3\nvalue = [0, 5]", fillcolor="#399de5"] ;
313 -> 327 ;
328 [label="age <= 53.5\nentropy = 0.97\nsamples = 31\nvalue = [30, 20]", fillcolor="#f6d5bd"] ;
312 -> 328 ;
329 [label="age <= 28.5\nentropy = 0.87\nsamples = 27\nvalue = [29, 12]", fillcolor="#f0b58b"] ;
328 -> 329 ;
330 [label="euribor3m <= 0.88\nentropy = 0.57\nsamples = 8\nvalue = [13, 2]", fillcolor="#e99457"] ;
329 -> 330 ;
331 [label="entropy = 0.0\nsamples = 3\nvalue = [5, 0]", fillcolor="#e58139"] ;
330 -> 331 ;
332 [label="job_management <= 0.5\nentropy = 0.72\nsamples = 5\nvalue = [8, 2]", fillcolor="#eca06a"] ;
330 -> 332 ;
333 [label="entropy = 0.5\nsamples = 4\nvalue = [8, 1]", fillcolor="#e89152"] ;
332 -> 333 ;
334 [label="entropy = 0.0\nsamples = 1\nvalue = [0, 1]", fillcolor="#399de5"] ;
332 -> 334 ;
335 [label="poutcome_failure <= 0.5\nentropy = 0.96\nsamples = 19\nvalue = [16, 10]", fillcolor="#f5d0b5"] ;
329 -> 335 ;
336 [label="job_technician <= 0.5\nentropy = 0.72\nsamples = 9\nvalue = [2, 8]", fillcolor="#6ab6ec"] ;
335 -> 336 ;
337 [label="entropy = 0.76\nsamples = 8\nvalue = [2, 7]", fillcolor="#72b9ec"] ;
336 -> 337 ;
338 [label="entropy = 0.0\nsamples = 1\nvalue = [0, 1]", fillcolor="#399de5"] ;
336 -> 338 ;
339 [label="loan_yes <= 0.5\nentropy = 0.54\nsamples = 10\nvalue = [14, 2]", fillcolor="#e99355"] ;
335 -> 339 ;
340 [label="entropy = 0.0\nsamples = 7\nvalue = [11, 0]", fillcolor="#e58139"] ;
339 -> 340 ;
341 [label="entropy = 0.97\nsamples = 3\nvalue = [3, 2]", fillcolor="#f6d5bd"] ;
339 -> 341 ;
342 [label="housing_yes <= 0.5\nentropy = 0.5\nsamples = 4\nvalue = [1, 8]", fillcolor="#52a9e8"] ;
328 -> 342 ;
343 [label="entropy = 0.0\nsamples = 2\nvalue = [0, 5]", fillcolor="#399de5"] ;
342 -> 343 ;
344 [label="day_of_week_tue <= 0.5\nentropy = 0.81\nsamples = 2\nvalue = [1, 3]", fillcolor="#7bbeee"] ;
342 -> 344 ;
345 [label="entropy = 0.0\nsamples = 1\nvalue = [0, 3]", fillcolor="#399de5"] ;
344 -> 345 ;
346 [label="entropy = 0.0\nsamples = 1\nvalue = [1, 0]", fillcolor="#e58139"] ;
344 -> 346 ;
347 [label="day_of_week_mon <= 0.5\nentropy = 0.97\nsamples = 204\nvalue = [133, 202]", fillcolor="#bbdef6"] ;
199 -> 347 ;
348 [label="nr_employed <= 5033.9\nentropy = 0.94\nsamples = 159\nvalue = [95, 168]", fillcolor="#a9d4f4"] ;
347 -> 348 ;
349 [label="cons_price_idx <= 94.41\nentropy = 0.89\nsamples = 138\nvalue = [70, 156]", fillcolor="#92c9f1"] ;
348 -> 349 ;
350 [label="month_sep <= 0.5\nentropy = 0.72\nsamples = 76\nvalue = [25, 101]", fillcolor="#6ab5eb"] ;
349 -> 350 ;
351 [label="marital_divorced <= 0.5\nentropy = 0.67\nsamples = 63\nvalue = [18, 84]", fillcolor="#63b2eb"] ;
350 -> 351 ;
352 [label="poutcome_success <= 0.5\nentropy = 0.74\nsamples = 54\nvalue = [18, 68]", fillcolor="#6db7ec"] ;
351 -> 352 ;
353 [label="pdays <= 508.0\nentropy = 0.95\nsamples = 19\nvalue = [11, 19]", fillcolor="#acd6f4"] ;
352 -> 353 ;
354 [label="entropy = 0.0\nsamples = 5\nvalue = [0, 7]", fillcolor="#399de5"] ;
353 -> 354 ;
355 [label="entropy = 1.0\nsamples = 14\nvalue = [11, 12]", fillcolor="#eff7fd"] ;
353 -> 355 ;
356 [label="campaign <= 6.0\nentropy = 0.54\nsamples = 35\nvalue = [7, 49]", fillcolor="#55abe9"] ;
352 -> 356 ;
357 [label="entropy = 0.5\nsamples = 34\nvalue = [6, 49]", fillcolor="#51a9e8"] ;
356 -> 357 ;
358 [label="entropy = 0.0\nsamples = 1\nvalue = [1, 0]", fillcolor="#e58139"] ;
356 -> 358 ;
359 [label="entropy = 0.0\nsamples = 9\nvalue = [0, 16]", fillcolor="#399de5"] ;
351 -> 359 ;
360 [label="housing_yes <= 0.5\nentropy = 0.87\nsamples = 13\nvalue = [7, 17]", fillcolor="#8bc5f0"] ;
350 -> 360 ;
361 [label="poutcome_success <= 0.5\nentropy = 0.47\nsamples = 6\nvalue = [1, 9]", fillcolor="#4fa8e8"] ;
360 -> 361 ;
362 [label="entropy = 0.0\nsamples = 1\nvalue = [1, 0]", fillcolor="#e58139"] ;
361 -> 362 ;
363 [label="entropy = 0.0\nsamples = 5\nvalue = [0, 9]", fillcolor="#399de5"] ;
361 -> 363 ;
364 [label="loan_yes <= 0.5\nentropy = 0.99\nsamples = 7\nvalue = [6, 8]", fillcolor="#cee6f8"] ;
360 -> 364 ;
365 [label="previous <= 1.5\nentropy = 0.97\nsamples = 6\nvalue = [6, 4]", fillcolor="#f6d5bd"] ;
364 -> 365 ;
366 [label="entropy = 0.0\nsamples = 2\nvalue = [0, 3]", fillcolor="#399de5"] ;
365 -> 366 ;
367 [label="entropy = 0.59\nsamples = 4\nvalue = [6, 1]", fillcolor="#e9965a"] ;
365 -> 367 ;
368 [label="entropy = 0.0\nsamples = 1\nvalue = [0, 4]", fillcolor="#399de5"] ;
364 -> 368 ;
369 [label="age <= 66.5\nentropy = 0.99\nsamples = 62\nvalue = [45.0, 55.0]", fillcolor="#dbedfa"] ;
349 -> 369 ;
370 [label="job_self-employed <= 0.5\nentropy = 0.97\nsamples = 57\nvalue = [37, 54]", fillcolor="#c1e0f7"] ;
369 -> 370 ;
371 [label="poutcome_success <= 0.5\nentropy = 0.95\nsamples = 54\nvalue = [32, 54]", fillcolor="#aed7f4"] ;
370 -> 371 ;
372 [label="job_student <= 0.5\nentropy = 1.0\nsamples = 23\nvalue = [19, 20]", fillcolor="#f5fafe"] ;
371 -> 372 ;
373 [label="entropy = 0.99\nsamples = 21\nvalue = [16, 20]", fillcolor="#d7ebfa"] ;
372 -> 373 ;
374 [label="entropy = 0.0\nsamples = 2\nvalue = [3, 0]", fillcolor="#e58139"] ;
372 -> 374 ;
375 [label="duration <= 176.0\nentropy = 0.85\nsamples = 31\nvalue = [13, 34]", fillcolor="#85c2ef"] ;
371 -> 375 ;
376 [label="entropy = 0.0\nsamples = 3\nvalue = [4, 0]", fillcolor="#e58139"] ;
375 -> 376 ;
377 [label="entropy = 0.74\nsamples = 28\nvalue = [9, 34]", fillcolor="#6db7ec"] ;
375 -> 377 ;
378 [label="entropy = 0.0\nsamples = 3\nvalue = [5, 0]", fillcolor="#e58139"] ;
370 -> 378 ;
379 [label="euribor3m <= 1.0\nentropy = 0.5\nsamples = 5\nvalue = [8, 1]", fillcolor="#e89152"] ;
369 -> 379 ;
380 [label="duration <= 388.5\nentropy = 0.81\nsamples = 3\nvalue = [3, 1]", fillcolor="#eeab7b"] ;
379 -> 380 ;
381 [label="entropy = 0.0\nsamples = 2\nvalue = [3, 0]", fillcolor="#e58139"] ;
380 -> 381 ;
382 [label="entropy = 0.0\nsamples = 1\nvalue = [0, 1]", fillcolor="#399de5"] ;
380 -> 382 ;
383 [label="entropy = 0.0\nsamples = 2\nvalue = [5, 0]", fillcolor="#e58139"] ;
379 -> 383 ;
384 [label="contact_cellular <= 0.5\nentropy = 0.91\nsamples = 21\nvalue = [25, 12]", fillcolor="#f1bd98"] ;
348 -> 384 ;
385 [label="entropy = 0.0\nsamples = 2\nvalue = [0, 3]", fillcolor="#399de5"] ;
384 -> 385 ;
386 [label="job_admin. <= 0.5\nentropy = 0.83\nsamples = 19\nvalue = [25, 9]", fillcolor="#eeae80"] ;
384 -> 386 ;
387 [label="poutcome_failure <= 0.5\nentropy = 0.93\nsamples = 12\nvalue = [15, 8]", fillcolor="#f3c4a3"] ;
386 -> 387 ;
388 [label="housing_no <= 0.5\nentropy = 0.5\nsamples = 6\nvalue = [1, 8]", fillcolor="#52a9e8"] ;
387 -> 388 ;
389 [label="entropy = 0.0\nsamples = 2\nvalue = [0, 3]", fillcolor="#399de5"] ;
388 -> 389 ;
390 [label="duration <= 168.5\nentropy = 0.65\nsamples = 4\nvalue = [1, 5]", fillcolor="#61b1ea"] ;
388 -> 390 ;
391 [label="entropy = 0.0\nsamples = 1\nvalue = [1, 0]", fillcolor="#e58139"] ;
390 -> 391 ;
392 [label="entropy = 0.0\nsamples = 3\nvalue = [0, 5]", fillcolor="#399de5"] ;
390 -> 392 ;
393 [label="entropy = 0.0\nsamples = 6\nvalue = [14, 0]", fillcolor="#e58139"] ;
387 -> 393 ;
394 [label="euribor3m <= 0.98\nentropy = 0.44\nsamples = 7\nvalue = [10, 1]", fillcolor="#e88e4d"] ;
386 -> 394 ;
395 [label="loan_no <= 0.5\nentropy = 1.0\nsamples = 2\nvalue = [1, 1]", fillcolor="#ffffff"] ;
394 -> 395 ;
396 [label="entropy = 0.0\nsamples = 1\nvalue = [0, 1]", fillcolor="#399de5"] ;
395 -> 396 ;
397 [label="entropy = 0.0\nsamples = 1\nvalue = [1, 0]", fillcolor="#e58139"] ;
395 -> 397 ;
398 [label="entropy = 0.0\nsamples = 5\nvalue = [9, 0]", fillcolor="#e58139"] ;
394 -> 398 ;
399 [label="euribor3m <= 0.99\nentropy = 1.0\nsamples = 45\nvalue = [38, 34]", fillcolor="#fcf2ea"] ;
347 -> 399 ;
400 [label="emp_var_rate <= -1.4\nentropy = 0.85\nsamples = 21\nvalue = [26, 10]", fillcolor="#efb185"] ;
399 -> 400 ;
401 [label="pdays <= 506.0\nentropy = 0.97\nsamples = 14\nvalue = [14, 9]", fillcolor="#f6d2b8"] ;
400 -> 401 ;
402 [label="entropy = 0.0\nsamples = 4\nvalue = [0, 7]", fillcolor="#399de5"] ;
401 -> 402 ;
403 [label="housing_no <= 0.5\nentropy = 0.54\nsamples = 10\nvalue = [14, 2]", fillcolor="#e99355"] ;
401 -> 403 ;
404 [label="job_retired <= 0.5\nentropy = 0.72\nsamples = 5\nvalue = [8, 2]", fillcolor="#eca06a"] ;
403 -> 404 ;
405 [label="entropy = 0.0\nsamples = 4\nvalue = [8, 0]", fillcolor="#e58139"] ;
404 -> 405 ;
406 [label="entropy = 0.0\nsamples = 1\nvalue = [0, 2]", fillcolor="#399de5"] ;
404 -> 406 ;
407 [label="entropy = 0.0\nsamples = 5\nvalue = [6, 0]", fillcolor="#e58139"] ;
403 -> 407 ;
408 [label="duration <= 180.0\nentropy = 0.39\nsamples = 7\nvalue = [12, 1]", fillcolor="#e78c49"] ;
400 -> 408 ;
409 [label="loan_no <= 0.5\nentropy = 0.65\nsamples = 4\nvalue = [5, 1]", fillcolor="#ea9a61"] ;
408 -> 409 ;
410 [label="entropy = 0.0\nsamples = 1\nvalue = [0, 1]", fillcolor="#399de5"] ;
409 -> 410 ;
411 [label="entropy = 0.0\nsamples = 3\nvalue = [5, 0]", fillcolor="#e58139"] ;
409 -> 411 ;
412 [label="entropy = 0.0\nsamples = 3\nvalue = [7, 0]", fillcolor="#e58139"] ;
408 -> 412 ;
413 [label="duration <= 261.5\nentropy = 0.92\nsamples = 24\nvalue = [12, 24]", fillcolor="#9ccef2"] ;
399 -> 413 ;
414 [label="poutcome_success <= 0.5\nentropy = 0.97\nsamples = 14\nvalue = [12, 8]", fillcolor="#f6d5bd"] ;
413 -> 414 ;
415 [label="duration <= 219.0\nentropy = 0.54\nsamples = 6\nvalue = [7, 1]", fillcolor="#e99355"] ;
414 -> 415 ;
416 [label="entropy = 0.0\nsamples = 4\nvalue = [5, 0]", fillcolor="#e58139"] ;
415 -> 416 ;
417 [label="contact_cellular <= 0.5\nentropy = 0.92\nsamples = 2\nvalue = [2, 1]", fillcolor="#f2c09c"] ;
415 -> 417 ;
418 [label="entropy = 0.0\nsamples = 1\nvalue = [2, 0]", fillcolor="#e58139"] ;
417 -> 418 ;
419 [label="entropy = 0.0\nsamples = 1\nvalue = [0, 1]", fillcolor="#399de5"] ;
417 -> 419 ;
420 [label="loan_no <= 0.5\nentropy = 0.98\nsamples = 8\nvalue = [5, 7]", fillcolor="#c6e3f8"] ;
414 -> 420 ;
421 [label="entropy = 0.0\nsamples = 1\nvalue = [2, 0]", fillcolor="#e58139"] ;
420 -> 421 ;
422 [label="euribor3m <= 1.04\nentropy = 0.88\nsamples = 7\nvalue = [3, 7]", fillcolor="#8ec7f0"] ;
420 -> 422 ;
423 [label="entropy = 0.0\nsamples = 4\nvalue = [0, 6]", fillcolor="#399de5"] ;
422 -> 423 ;
424 [label="job_admin. <= 0.5\nentropy = 0.81\nsamples = 3\nvalue = [3, 1]", fillcolor="#eeab7b"] ;
422 -> 424 ;
425 [label="entropy = 0.0\nsamples = 1\nvalue = [2, 0]", fillcolor="#e58139"] ;
424 -> 425 ;
426 [label="entropy = 1.0\nsamples = 2\nvalue = [1, 1]", fillcolor="#ffffff"] ;
424 -> 426 ;
427 [label="entropy = 0.0\nsamples = 10\nvalue = [0, 16]", fillcolor="#399de5"] ;
413 -> 427 ;
428 [label="poutcome_success <= 0.5\nentropy = 0.38\nsamples = 16216\nvalue = [23882, 1912]", fillcolor="#e78b49"] ;
0 -> 428 [labeldistance=2.5, labelangle=-45, headlabel="False"] ;
429 [label="default_no <= 0.5\nentropy = 0.37\nsamples = 16064\nvalue = [23756.0, 1809.0]", fillcolor="#e78b48"] ;
428 -> 429 ;
430 [label="duration <= 533.5\nentropy = 0.27\nsamples = 3761\nvalue = [5689, 272]", fillcolor="#e68742"] ;
429 -> 430 ;
431 [label="month_mar <= 0.5\nentropy = 0.07\nsamples = 3387\nvalue = [5331, 44]", fillcolor="#e5823b"] ;
430 -> 431 ;
432 [label="duration <= 361.5\nentropy = 0.07\nsamples = 3381\nvalue = [5324, 42]", fillcolor="#e5823b"] ;
431 -> 432 ;
433 [label="month_apr <= 0.5\nentropy = 0.01\nsamples = 2982\nvalue = [4728, 5]", fillcolor="#e58139"] ;
432 -> 433 ;
434 [label="month_jun <= 0.5\nentropy = 0.01\nsamples = 2873\nvalue = [4571, 2]", fillcolor="#e58139"] ;
433 -> 434 ;
435 [label="month_nov <= 0.5\nentropy = 0.0\nsamples = 2344\nvalue = [3721, 1]", fillcolor="#e58139"] ;
434 -> 435 ;
436 [label="entropy = 0.0\nsamples = 2187\nvalue = [3489, 0]", fillcolor="#e58139"] ;
435 -> 436 ;
437 [label="campaign <= 1.5\nentropy = 0.04\nsamples = 157\nvalue = [232, 1]", fillcolor="#e5823a"] ;
435 -> 437 ;
438 [label="entropy = 0.08\nsamples = 73\nvalue = [106.0, 1.0]", fillcolor="#e5823b"] ;
437 -> 438 ;
439 [label="entropy = 0.0\nsamples = 84\nvalue = [126, 0]", fillcolor="#e58139"] ;
437 -> 439 ;
440 [label="cons_conf_idx <= -41.3\nentropy = 0.01\nsamples = 529\nvalue = [850, 1]", fillcolor="#e58139"] ;
434 -> 440 ;
441 [label="entropy = 0.0\nsamples = 524\nvalue = [844, 0]", fillcolor="#e58139"] ;
440 -> 441 ;
442 [label="housing_yes <= 0.5\nentropy = 0.59\nsamples = 5\nvalue = [6, 1]", fillcolor="#e9965a"] ;
440 -> 442 ;
443 [label="entropy = 0.92\nsamples = 3\nvalue = [2, 1]", fillcolor="#f2c09c"] ;
442 -> 443 ;
444 [label="entropy = 0.0\nsamples = 2\nvalue = [4, 0]", fillcolor="#e58139"] ;
442 -> 444 ;
445 [label="day_of_week_thu <= 0.5\nentropy = 0.13\nsamples = 109\nvalue = [157, 3]", fillcolor="#e5833d"] ;
433 -> 445 ;
446 [label="day_of_week_tue <= 0.5\nentropy = 0.07\nsamples = 89\nvalue = [123, 1]", fillcolor="#e5823b"] ;
445 -> 446 ;
447 [label="entropy = 0.0\nsamples = 83\nvalue = [117, 0]", fillcolor="#e58139"] ;
446 -> 447 ;
448 [label="poutcome_nonexistent <= 0.5\nentropy = 0.59\nsamples = 6\nvalue = [6, 1]", fillcolor="#e9965a"] ;
446 -> 448 ;
449 [label="entropy = 0.0\nsamples = 2\nvalue = [3, 0]", fillcolor="#e58139"] ;
448 -> 449 ;
450 [label="entropy = 0.81\nsamples = 4\nvalue = [3, 1]", fillcolor="#eeab7b"] ;
448 -> 450 ;
451 [label="previous <= 0.5\nentropy = 0.31\nsamples = 20\nvalue = [34, 2]", fillcolor="#e78845"] ;
445 -> 451 ;
452 [label="housing_no <= 0.5\nentropy = 0.39\nsamples = 15\nvalue = [24, 2]", fillcolor="#e78c49"] ;
451 -> 452 ;
453 [label="entropy = 0.47\nsamples = 11\nvalue = [18, 2]", fillcolor="#e88f4f"] ;
452 -> 453 ;
454 [label="entropy = 0.0\nsamples = 4\nvalue = [6, 0]", fillcolor="#e58139"] ;
452 -> 454 ;
455 [label="entropy = 0.0\nsamples = 5\nvalue = [10, 0]", fillcolor="#e58139"] ;
451 -> 455 ;
456 [label="duration <= 394.5\nentropy = 0.32\nsamples = 399\nvalue = [596, 37]", fillcolor="#e78945"] ;
432 -> 456 ;
457 [label="campaign <= 7.5\nentropy = 0.13\nsamples = 109\nvalue = [158, 3]", fillcolor="#e5833d"] ;
456 -> 457 ;
458 [label="month_jul <= 0.5\nentropy = 0.06\nsamples = 106\nvalue = [155, 1]", fillcolor="#e5823a"] ;
457 -> 458 ;
459 [label="housing_yes <= 0.5\nentropy = 0.07\nsamples = 84\nvalue = [125, 1]", fillcolor="#e5823b"] ;
458 -> 459 ;
460 [label="entropy = 0.12\nsamples = 38\nvalue = [61, 1]", fillcolor="#e5833c"] ;
459 -> 460 ;
461 [label="entropy = 0.0\nsamples = 46\nvalue = [64, 0]", fillcolor="#e58139"] ;
459 -> 461 ;
462 [label="entropy = 0.0\nsamples = 22\nvalue = [30, 0]", fillcolor="#e58139"] ;
458 -> 462 ;
463 [label="education_basic.9y <= 0.5\nentropy = 0.97\nsamples = 3\nvalue = [3, 2]", fillcolor="#f6d5bd"] ;
457 -> 463 ;
464 [label="entropy = 0.0\nsamples = 2\nvalue = [3, 0]", fillcolor="#e58139"] ;
463 -> 464 ;
465 [label="entropy = 0.0\nsamples = 1\nvalue = [0, 2]", fillcolor="#399de5"] ;
463 -> 465 ;
466 [label="job_technician <= 0.5\nentropy = 0.37\nsamples = 290\nvalue = [438, 34]", fillcolor="#e78b48"] ;
456 -> 466 ;
467 [label="marital_single <= 0.5\nentropy = 0.4\nsamples = 265\nvalue = [398, 34]", fillcolor="#e78c4a"] ;
466 -> 467 ;
468 [label="nr_employed <= 5087.65\nentropy = 0.32\nsamples = 217\nvalue = [329, 20]", fillcolor="#e78945"] ;
467 -> 468 ;
469 [label="entropy = 0.0\nsamples = 1\nvalue = [0, 1]", fillcolor="#399de5"] ;
468 -> 469 ;
470 [label="entropy = 0.31\nsamples = 216\nvalue = [329, 19]", fillcolor="#e78844"] ;
468 -> 470 ;
471 [label="day_of_week_mon <= 0.5\nentropy = 0.65\nsamples = 48\nvalue = [69.0, 14.0]", fillcolor="#ea9b61"] ;
467 -> 471 ;
472 [label="entropy = 0.74\nsamples = 38\nvalue = [53, 14]", fillcolor="#eca26d"] ;
471 -> 472 ;
473 [label="entropy = 0.0\nsamples = 10\nvalue = [16, 0]", fillcolor="#e58139"] ;
471 -> 473 ;
474 [label="entropy = 0.0\nsamples = 25\nvalue = [40, 0]", fillcolor="#e58139"] ;
466 -> 474 ;
475 [label="job_management <= 0.5\nentropy = 0.76\nsamples = 6\nvalue = [7, 2]", fillcolor="#eca572"] ;
431 -> 475 ;
476 [label="day_of_week_fri <= 0.5\nentropy = 0.54\nsamples = 5\nvalue = [7, 1]", fillcolor="#e99355"] ;
475 -> 476 ;
477 [label="entropy = 0.0\nsamples = 4\nvalue = [7, 0]", fillcolor="#e58139"] ;
476 -> 477 ;
478 [label="entropy = 0.0\nsamples = 1\nvalue = [0, 1]", fillcolor="#399de5"] ;
476 -> 478 ;
479 [label="entropy = 0.0\nsamples = 1\nvalue = [0, 1]", fillcolor="#399de5"] ;
475 -> 479 ;
480 [label="job_admin. <= 0.5\nentropy = 0.96\nsamples = 374\nvalue = [358, 228]", fillcolor="#f6d1b7"] ;
430 -> 480 ;
481 [label="euribor3m <= 4.86\nentropy = 0.95\nsamples = 329\nvalue = [325, 191]", fillcolor="#f4cbad"] ;
480 -> 481 ;
482 [label="cons_price_idx <= 92.98\nentropy = 0.89\nsamples = 184\nvalue = [195, 85]", fillcolor="#f0b88f"] ;
481 -> 482 ;
483 [label="marital_single <= 0.5\nentropy = 0.99\nsamples = 35\nvalue = [29, 24]", fillcolor="#fbe9dd"] ;
482 -> 483 ;
484 [label="contact_telephone <= 0.5\nentropy = 1.0\nsamples = 29\nvalue = [20.0, 23.0]", fillcolor="#e5f2fc"] ;
483 -> 484 ;
485 [label="loan_no <= 0.5\nentropy = 0.99\nsamples = 28\nvalue = [18.0, 23.0]", fillcolor="#d4eaf9"] ;
484 -> 485 ;
486 [label="entropy = 0.0\nsamples = 1\nvalue = [2, 0]", fillcolor="#e58139"] ;
485 -> 486 ;
487 [label="entropy = 0.98\nsamples = 27\nvalue = [16, 23]", fillcolor="#c3e1f7"] ;
485 -> 487 ;
488 [label="entropy = 0.0\nsamples = 1\nvalue = [2, 0]", fillcolor="#e58139"] ;
484 -> 488 ;
489 [label="education_high.school <= 0.5\nentropy = 0.47\nsamples = 6\nvalue = [9, 1]", fillcolor="#e88f4f"] ;
483 -> 489 ;
490 [label="job_blue-collar <= 0.5\nentropy = 0.54\nsamples = 5\nvalue = [7, 1]", fillcolor="#e99355"] ;
489 -> 490 ;
491 [label="entropy = 0.0\nsamples = 2\nvalue = [5, 0]", fillcolor="#e58139"] ;
490 -> 491 ;
492 [label="entropy = 0.92\nsamples = 3\nvalue = [2, 1]", fillcolor="#f2c09c"] ;
490 -> 492 ;
493 [label="entropy = 0.0\nsamples = 1\nvalue = [2, 0]", fillcolor="#e58139"] ;
489 -> 493 ;
494 [label="campaign <= 5.5\nentropy = 0.84\nsamples = 149\nvalue = [166.0, 61.0]", fillcolor="#efaf82"] ;
482 -> 494 ;
495 [label="day_of_week_mon <= 0.5\nentropy = 0.81\nsamples = 142\nvalue = [161, 53]", fillcolor="#eeaa7a"] ;
494 -> 495 ;
496 [label="euribor3m <= 1.45\nentropy = 0.74\nsamples = 118\nvalue = [139, 37]", fillcolor="#eca36e"] ;
495 -> 496 ;
497 [label="entropy = 0.31\nsamples = 10\nvalue = [17, 1]", fillcolor="#e78845"] ;
496 -> 497 ;
498 [label="entropy = 0.77\nsamples = 108\nvalue = [122, 36]", fillcolor="#eda673"] ;
496 -> 498 ;
499 [label="job_technician <= 0.5\nentropy = 0.98\nsamples = 24\nvalue = [22, 16]", fillcolor="#f8ddc9"] ;
495 -> 499 ;
500 [label="entropy = 1.0\nsamples = 20\nvalue = [17, 16]", fillcolor="#fdf8f3"] ;
499 -> 500 ;
501 [label="entropy = 0.0\nsamples = 4\nvalue = [5, 0]", fillcolor="#e58139"] ;
499 -> 501 ;
502 [label="day_of_week_mon <= 0.5\nentropy = 0.96\nsamples = 7\nvalue = [5, 8]", fillcolor="#b5daf5"] ;
494 -> 502 ;
503 [label="euribor3m <= 4.86\nentropy = 0.76\nsamples = 5\nvalue = [2, 7]", fillcolor="#72b9ec"] ;
502 -> 503 ;
504 [label="entropy = 0.0\nsamples = 1\nvalue = [2, 0]", fillcolor="#e58139"] ;
503 -> 504 ;
505 [label="entropy = 0.0\nsamples = 4\nvalue = [0, 7]", fillcolor="#399de5"] ;
503 -> 505 ;
506 [label="age <= 47.0\nentropy = 0.81\nsamples = 2\nvalue = [3, 1]", fillcolor="#eeab7b"] ;
502 -> 506 ;
507 [label="entropy = 0.0\nsamples = 1\nvalue = [3, 0]", fillcolor="#e58139"] ;
506 -> 507 ;
508 [label="entropy = 0.0\nsamples = 1\nvalue = [0, 1]", fillcolor="#399de5"] ;
506 -> 508 ;
509 [label="campaign <= 8.0\nentropy = 0.99\nsamples = 145\nvalue = [130, 106]", fillcolor="#fae8da"] ;
481 -> 509 ;
510 [label="day_of_week_fri <= 0.5\nentropy = 1.0\nsamples = 141\nvalue = [124, 106]", fillcolor="#fbede2"] ;
509 -> 510 ;
511 [label="education_high.school <= 0.5\nentropy = 0.97\nsamples = 104\nvalue = [97, 65]", fillcolor="#f6d5be"] ;
510 -> 511 ;
512 [label="day_of_week_mon <= 0.5\nentropy = 0.99\nsamples = 85\nvalue = [73, 57]", fillcolor="#f9e3d4"] ;
511 -> 512 ;
513 [label="entropy = 1.0\nsamples = 62\nvalue = [48, 45]", fillcolor="#fdf7f3"] ;
512 -> 513 ;
514 [label="entropy = 0.91\nsamples = 23\nvalue = [25, 12]", fillcolor="#f1bd98"] ;
512 -> 514 ;
515 [label="month_jun <= 0.5\nentropy = 0.81\nsamples = 19\nvalue = [24, 8]", fillcolor="#eeab7b"] ;
511 -> 515 ;
516 [label="entropy = 0.65\nsamples = 11\nvalue = [15, 3]", fillcolor="#ea9a61"] ;
515 -> 516 ;
517 [label="entropy = 0.94\nsamples = 8\nvalue = [9, 5]", fillcolor="#f3c7a7"] ;
515 -> 517 ;
518 [label="duration <= 1615.0\nentropy = 0.97\nsamples = 37\nvalue = [27, 41]", fillcolor="#bbdef6"] ;
510 -> 518 ;
519 [label="campaign <= 4.5\nentropy = 0.99\nsamples = 34\nvalue = [27, 35]", fillcolor="#d2e9f9"] ;
518 -> 519 ;
520 [label="entropy = 0.97\nsamples = 31\nvalue = [24, 35]", fillcolor="#c1e0f7"] ;
519 -> 520 ;
521 [label="entropy = 0.0\nsamples = 3\nvalue = [3, 0]", fillcolor="#e58139"] ;
519 -> 521 ;
522 [label="entropy = 0.0\nsamples = 3\nvalue = [0, 6]", fillcolor="#399de5"] ;
518 -> 522 ;
523 [label="entropy = 0.0\nsamples = 4\nvalue = [6, 0]", fillcolor="#e58139"] ;
509 -> 523 ;
524 [label="duration <= 883.0\nentropy = 1.0\nsamples = 45\nvalue = [33, 37]", fillcolor="#eaf4fc"] ;
480 -> 524 ;
525 [label="education_unknown <= 0.5\nentropy = 0.95\nsamples = 28\nvalue = [28, 16]", fillcolor="#f4c9aa"] ;
524 -> 525 ;
526 [label="euribor3m <= 4.96\nentropy = 0.97\nsamples = 25\nvalue = [24, 16]", fillcolor="#f6d5bd"] ;
525 -> 526 ;
527 [label="marital_divorced <= 0.5\nentropy = 0.76\nsamples = 12\nvalue = [14, 4]", fillcolor="#eca572"] ;
526 -> 527 ;
528 [label="day_of_week_fri <= 0.5\nentropy = 0.39\nsamples = 10\nvalue = [12, 1]", fillcolor="#e78c49"] ;
527 -> 528 ;
529 [label="entropy = 0.0\nsamples = 8\nvalue = [11, 0]", fillcolor="#e58139"] ;
528 -> 529 ;
530 [label="entropy = 1.0\nsamples = 2\nvalue = [1, 1]", fillcolor="#ffffff"] ;
528 -> 530 ;
531 [label="day_of_week_fri <= 0.5\nentropy = 0.97\nsamples = 2\nvalue = [2, 3]", fillcolor="#bddef6"] ;
527 -> 531 ;
532 [label="entropy = 0.0\nsamples = 1\nvalue = [2, 0]", fillcolor="#e58139"] ;
531 -> 532 ;
533 [label="entropy = 0.0\nsamples = 1\nvalue = [0, 3]", fillcolor="#399de5"] ;
531 -> 533 ;
534 [label="age <= 39.0\nentropy = 0.99\nsamples = 13\nvalue = [10, 12]", fillcolor="#deeffb"] ;
526 -> 534 ;
535 [label="contact_telephone <= 0.5\nentropy = 0.72\nsamples = 5\nvalue = [2, 8]", fillcolor="#6ab6ec"] ;
534 -> 535 ;
536 [label="entropy = 0.0\nsamples = 3\nvalue = [0, 7]", fillcolor="#399de5"] ;
535 -> 536 ;
537 [label="entropy = 0.92\nsamples = 2\nvalue = [2, 1]", fillcolor="#f2c09c"] ;
535 -> 537 ;
538 [label="month_jul <= 0.5\nentropy = 0.92\nsamples = 8\nvalue = [8, 4]", fillcolor="#f2c09c"] ;
534 -> 538 ;
539 [label="entropy = 0.92\nsamples = 4\nvalue = [4, 2]", fillcolor="#f2c09c"] ;
538 -> 539 ;
540 [label="entropy = 0.92\nsamples = 4\nvalue = [4, 2]", fillcolor="#f2c09c"] ;
538 -> 540 ;
541 [label="entropy = 0.0\nsamples = 3\nvalue = [4, 0]", fillcolor="#e58139"] ;
525 -> 541 ;
542 [label="cons_conf_idx <= -41.3\nentropy = 0.71\nsamples = 17\nvalue = [5, 21]", fillcolor="#68b4eb"] ;
524 -> 542 ;
543 [label="previous <= 0.5\nentropy = 0.85\nsamples = 11\nvalue = [5, 13]", fillcolor="#85c3ef"] ;
542 -> 543 ;
544 [label="day_of_week_tue <= 0.5\nentropy = 0.79\nsamples = 10\nvalue = [4, 13]", fillcolor="#76bbed"] ;
543 -> 544 ;
545 [label="day_of_week_thu <= 0.5\nentropy = 0.7\nsamples = 9\nvalue = [3, 13]", fillcolor="#67b4eb"] ;
544 -> 545 ;
546 [label="entropy = 0.44\nsamples = 6\nvalue = [1, 10]", fillcolor="#4da7e8"] ;
545 -> 546 ;
547 [label="entropy = 0.97\nsamples = 3\nvalue = [2, 3]", fillcolor="#bddef6"] ;
545 -> 547 ;
548 [label="entropy = 0.0\nsamples = 1\nvalue = [1, 0]", fillcolor="#e58139"] ;
544 -> 548 ;
549 [label="entropy = 0.0\nsamples = 1\nvalue = [1, 0]", fillcolor="#e58139"] ;
543 -> 549 ;
550 [label="entropy = 0.0\nsamples = 6\nvalue = [0, 8]", fillcolor="#399de5"] ;
542 -> 550 ;
551 [label="job_blue-collar <= 0.5\nentropy = 0.4\nsamples = 12303\nvalue = [18067, 1537]", fillcolor="#e78c4a"] ;
429 -> 551 ;
552 [label="duration <= 475.5\nentropy = 0.41\nsamples = 9724\nvalue = [14199, 1268]", fillcolor="#e78c4b"] ;
551 -> 552 ;
553 [label="duration <= 128.5\nentropy = 0.22\nsamples = 8479\nvalue = [13023.0, 478.0]", fillcolor="#e68640"] ;
552 -> 553 ;
554 [label="emp_var_rate <= 0.5\nentropy = 0.07\nsamples = 3594\nvalue = [5661, 51]", fillcolor="#e5823b"] ;
553 -> 554 ;
555 [label="job_services <= 0.5\nentropy = 0.16\nsamples = 1379\nvalue = [2145, 51]", fillcolor="#e6843e"] ;
554 -> 555 ;
556 [label="month_nov <= 0.5\nentropy = 0.18\nsamples = 1214\nvalue = [1871, 51]", fillcolor="#e6843e"] ;
555 -> 556 ;
557 [label="job_student <= 0.5\nentropy = 0.25\nsamples = 776\nvalue = [1178, 50]", fillcolor="#e68641"] ;
556 -> 557 ;
558 [label="entropy = 0.22\nsamples = 735\nvalue = [1132, 41]", fillcolor="#e68640"] ;
557 -> 558 ;
559 [label="entropy = 0.64\nsamples = 41\nvalue = [46, 9]", fillcolor="#ea9a60"] ;
557 -> 559 ;
560 [label="poutcome_failure <= 0.5\nentropy = 0.02\nsamples = 438\nvalue = [693.0, 1.0]", fillcolor="#e58139"] ;
556 -> 560 ;
561 [label="entropy = 0.0\nsamples = 348\nvalue = [557, 0]", fillcolor="#e58139"] ;
560 -> 561 ;
562 [label="entropy = 0.06\nsamples = 90\nvalue = [136, 1]", fillcolor="#e5823a"] ;
560 -> 562 ;
563 [label="entropy = 0.0\nsamples = 165\nvalue = [274, 0]", fillcolor="#e58139"] ;
555 -> 563 ;
564 [label="entropy = 0.0\nsamples = 2215\nvalue = [3516, 0]", fillcolor="#e58139"] ;
554 -> 564 ;
565 [label="cons_conf_idx <= -46.65\nentropy = 0.31\nsamples = 4885\nvalue = [7362, 427]", fillcolor="#e78844"] ;
553 -> 565 ;
566 [label="month_apr <= 0.5\nentropy = 0.84\nsamples = 403\nvalue = [477, 177]", fillcolor="#efb082"] ;
565 -> 566 ;
567 [label="job_management <= 0.5\nentropy = 0.99\nsamples = 50\nvalue = [36.0, 46.0]", fillcolor="#d4eaf9"] ;
566 -> 567 ;
568 [label="job_self-employed <= 0.5\nentropy = 1.0\nsamples = 45\nvalue = [35, 38]", fillcolor="#eff7fd"] ;
567 -> 568 ;
569 [label="entropy = 1.0\nsamples = 44\nvalue = [33, 38]", fillcolor="#e5f2fc"] ;
568 -> 569 ;
570 [label="entropy = 0.0\nsamples = 1\nvalue = [2, 0]", fillcolor="#e58139"] ;
568 -> 570 ;
571 [label="age <= 33.5\nentropy = 0.5\nsamples = 5\nvalue = [1, 8]", fillcolor="#52a9e8"] ;
567 -> 571 ;
572 [label="entropy = 0.0\nsamples = 3\nvalue = [0, 6]", fillcolor="#399de5"] ;
571 -> 572 ;
573 [label="entropy = 0.92\nsamples = 2\nvalue = [1, 2]", fillcolor="#9ccef2"] ;
571 -> 573 ;
574 [label="age <= 62.5\nentropy = 0.78\nsamples = 353\nvalue = [441, 131]", fillcolor="#eda674"] ;
566 -> 574 ;
575 [label="previous <= 0.5\nentropy = 0.71\nsamples = 333\nvalue = [435, 105]", fillcolor="#eb9f69"] ;
574 -> 575 ;
576 [label="entropy = 0.76\nsamples = 256\nvalue = [319, 91]", fillcolor="#eca571"] ;
575 -> 576 ;
577 [label="entropy = 0.49\nsamples = 77\nvalue = [116, 14]", fillcolor="#e89051"] ;
575 -> 577 ;
578 [label="education_high.school <= 0.5\nentropy = 0.7\nsamples = 20\nvalue = [6, 26]", fillcolor="#67b4eb"] ;
574 -> 578 ;
579 [label="entropy = 0.57\nsamples = 19\nvalue = [4, 26]", fillcolor="#57ace9"] ;
578 -> 579 ;
580 [label="entropy = 0.0\nsamples = 1\nvalue = [2, 0]", fillcolor="#e58139"] ;
578 -> 580 ;
581 [label="cons_conf_idx <= -38.4\nentropy = 0.22\nsamples = 4482\nvalue = [6885, 250]", fillcolor="#e68640"] ;
565 -> 581 ;
582 [label="duration <= 256.5\nentropy = 0.29\nsamples = 2742\nvalue = [4134, 226]", fillcolor="#e68844"] ;
581 -> 582 ;
583 [label="month_jul <= 0.5\nentropy = 0.24\nsamples = 1710\nvalue = [2624.0, 105.0]", fillcolor="#e68641"] ;
582 -> 583 ;
584 [label="entropy = 0.3\nsamples = 1214\nvalue = [1845, 105]", fillcolor="#e68844"] ;
583 -> 584 ;
585 [label="entropy = 0.0\nsamples = 496\nvalue = [779, 0]", fillcolor="#e58139"] ;
583 -> 585 ;
586 [label="euribor3m <= 1.28\nentropy = 0.38\nsamples = 1032\nvalue = [1510.0, 121.0]", fillcolor="#e78b49"] ;
582 -> 586 ;
587 [label="entropy = 0.85\nsamples = 164\nvalue = [194, 74]", fillcolor="#efb185"] ;
586 -> 587 ;
588 [label="entropy = 0.22\nsamples = 868\nvalue = [1316, 47]", fillcolor="#e68640"] ;
586 -> 588 ;
589 [label="euribor3m <= 4.96\nentropy = 0.07\nsamples = 1740\nvalue = [2751, 24]", fillcolor="#e5823b"] ;
581 -> 589 ;
590 [label="education_professional.course <= 0.5\nentropy = 0.04\nsamples = 1341\nvalue = [2128, 10]", fillcolor="#e5823a"] ;
589 -> 590 ;
591 [label="entropy = 0.05\nsamples = 1115\nvalue = [1774, 10]", fillcolor="#e5823a"] ;
590 -> 591 ;
592 [label="entropy = 0.0\nsamples = 226\nvalue = [354, 0]", fillcolor="#e58139"] ;
590 -> 592 ;
593 [label="housing_yes <= 0.5\nentropy = 0.15\nsamples = 399\nvalue = [623.0, 14.0]", fillcolor="#e6843d"] ;
589 -> 593 ;
594 [label="entropy = 0.08\nsamples = 193\nvalue = [304.0, 3.0]", fillcolor="#e5823b"] ;
593 -> 594 ;
595 [label="entropy = 0.21\nsamples = 206\nvalue = [319, 11]", fillcolor="#e68540"] ;
593 -> 595 ;
596 [label="nr_employed <= 5145.05\nentropy = 0.97\nsamples = 1245\nvalue = [1176, 790]", fillcolor="#f6d6be"] ;
552 -> 596 ;
597 [label="housing_unknown <= 0.5\nentropy = 0.99\nsamples = 335\nvalue = [234, 295]", fillcolor="#d6ebfa"] ;
596 -> 597 ;
598 [label="education_unknown <= 0.5\nentropy = 0.99\nsamples = 325\nvalue = [232, 285]", fillcolor="#daedfa"] ;
597 -> 598 ;
599 [label="month_jun <= 0.5\nentropy = 0.99\nsamples = 318\nvalue = [223, 283]", fillcolor="#d5eaf9"] ;
598 -> 599 ;
600 [label="age <= 39.5\nentropy = 1.0\nsamples = 293\nvalue = [211.0, 248.0]", fillcolor="#e1f0fb"] ;
599 -> 600 ;
601 [label="entropy = 0.98\nsamples = 193\nvalue = [124, 176]", fillcolor="#c4e2f7"] ;
600 -> 601 ;
602 [label="entropy = 0.99\nsamples = 100\nvalue = [87, 72]", fillcolor="#fbe9dd"] ;
600 -> 602 ;
603 [label="education_professional.course <= 0.5\nentropy = 0.82\nsamples = 25\nvalue = [12.0, 35.0]", fillcolor="#7dbfee"] ;
599 -> 603 ;
604 [label="entropy = 0.72\nsamples = 20\nvalue = [8, 32]", fillcolor="#6ab6ec"] ;
603 -> 604 ;
605 [label="entropy = 0.99\nsamples = 5\nvalue = [4, 3]", fillcolor="#f8e0ce"] ;
603 -> 605 ;
606 [label="poutcome_nonexistent <= 0.5\nentropy = 0.68\nsamples = 7\nvalue = [9, 2]", fillcolor="#eb9d65"] ;
598 -> 606 ;
607 [label="entropy = 0.0\nsamples = 1\nvalue = [0, 1]", fillcolor="#399de5"] ;
606 -> 607 ;
608 [label="emp_var_rate <= -2.35\nentropy = 0.47\nsamples = 6\nvalue = [9, 1]", fillcolor="#e88f4f"] ;
606 -> 608 ;
609 [label="entropy = 1.0\nsamples = 2\nvalue = [1, 1]", fillcolor="#ffffff"] ;
608 -> 609 ;
610 [label="entropy = 0.0\nsamples = 4\nvalue = [8, 0]", fillcolor="#e58139"] ;
608 -> 610 ;
611 [label="euribor3m <= 1.26\nentropy = 0.65\nsamples = 10\nvalue = [2, 10]", fillcolor="#61b1ea"] ;
597 -> 611 ;
612 [label="duration <= 558.0\nentropy = 1.0\nsamples = 4\nvalue = [2, 2]", fillcolor="#ffffff"] ;
611 -> 612 ;
613 [label="entropy = 0.0\nsamples = 1\nvalue = [1, 0]", fillcolor="#e58139"] ;
612 -> 613 ;
614 [label="job_technician <= 0.5\nentropy = 0.92\nsamples = 3\nvalue = [1, 2]", fillcolor="#9ccef2"] ;
612 -> 614 ;
615 [label="entropy = 0.0\nsamples = 2\nvalue = [0, 2]", fillcolor="#399de5"] ;
614 -> 615 ;
616 [label="entropy = 0.0\nsamples = 1\nvalue = [1, 0]", fillcolor="#e58139"] ;
614 -> 616 ;
617 [label="entropy = 0.0\nsamples = 6\nvalue = [0, 8]", fillcolor="#399de5"] ;
611 -> 617 ;
618 [label="month_may <= 0.5\nentropy = 0.93\nsamples = 910\nvalue = [942.0, 495.0]", fillcolor="#f3c3a1"] ;
596 -> 618 ;
619 [label="job_student <= 0.5\nentropy = 0.96\nsamples = 702\nvalue = [678, 428]", fillcolor="#f5d1b6"] ;
618 -> 619 ;
620 [label="campaign <= 16.0\nentropy = 0.96\nsamples = 696\nvalue = [670, 428]", fillcolor="#f6d1b7"] ;
619 -> 620 ;
621 [label="month_jul <= 0.5\nentropy = 0.96\nsamples = 694\nvalue = [670, 425]", fillcolor="#f5d1b7"] ;
620 -> 621 ;
622 [label="entropy = 0.99\nsamples = 408\nvalue = [369, 281]", fillcolor="#f9e1d0"] ;
621 -> 622 ;
623 [label="entropy = 0.91\nsamples = 286\nvalue = [301, 144]", fillcolor="#f1bd98"] ;
621 -> 623 ;
624 [label="entropy = 0.0\nsamples = 2\nvalue = [0, 3]", fillcolor="#399de5"] ;
620 -> 624 ;
625 [label="entropy = 0.0\nsamples = 6\nvalue = [8, 0]", fillcolor="#e58139"] ;
619 -> 625 ;
626 [label="euribor3m <= 4.86\nentropy = 0.73\nsamples = 208\nvalue = [264, 67]", fillcolor="#eca16b"] ;
618 -> 626 ;
627 [label="duration <= 741.5\nentropy = 0.69\nsamples = 194\nvalue = [250, 57]", fillcolor="#eb9e66"] ;
626 -> 627 ;
628 [label="marital_married <= 0.5\nentropy = 0.36\nsamples = 109\nvalue = [151, 11]", fillcolor="#e78a47"] ;
627 -> 628 ;
629 [label="entropy = 0.47\nsamples = 41\nvalue = [54, 6]", fillcolor="#e88f4f"] ;
628 -> 629 ;
630 [label="entropy = 0.28\nsamples = 68\nvalue = [97, 5]", fillcolor="#e68743"] ;
628 -> 630 ;
631 [label="job_unemployed <= 0.5\nentropy = 0.9\nsamples = 85\nvalue = [99, 46]", fillcolor="#f1bc95"] ;
627 -> 631 ;
632 [label="entropy = 0.91\nsamples = 84\nvalue = [97, 46]", fillcolor="#f1bd97"] ;
631 -> 632 ;
633 [label="entropy = 0.0\nsamples = 1\nvalue = [2, 0]", fillcolor="#e58139"] ;
631 -> 633 ;
634 [label="education_high.school <= 0.5\nentropy = 0.98\nsamples = 14\nvalue = [14, 10]", fillcolor="#f8dbc6"] ;
626 -> 634 ;
635 [label="campaign <= 1.5\nentropy = 1.0\nsamples = 7\nvalue = [7, 6]", fillcolor="#fbede3"] ;
634 -> 635 ;
636 [label="entropy = 0.0\nsamples = 2\nvalue = [3, 0]", fillcolor="#e58139"] ;
635 -> 636 ;
637 [label="entropy = 0.97\nsamples = 5\nvalue = [4, 6]", fillcolor="#bddef6"] ;
635 -> 637 ;
638 [label="age <= 27.5\nentropy = 0.95\nsamples = 7\nvalue = [7, 4]", fillcolor="#f4c9aa"] ;
634 -> 638 ;
639 [label="entropy = 0.0\nsamples = 1\nvalue = [4, 0]", fillcolor="#e58139"] ;
638 -> 639 ;
640 [label="entropy = 0.99\nsamples = 6\nvalue = [3, 4]", fillcolor="#cee6f8"] ;
638 -> 640 ;
641 [label="day_of_week_tue <= 0.5\nentropy = 0.35\nsamples = 2579\nvalue = [3868, 269]", fillcolor="#e78a47"] ;
551 -> 641 ;
642 [label="emp_var_rate <= -2.35\nentropy = 0.37\nsamples = 2091\nvalue = [3121.0, 238.0]", fillcolor="#e78b48"] ;
641 -> 642 ;
643 [label="education_unknown <= 0.5\nentropy = 0.97\nsamples = 13\nvalue = [14, 9]", fillcolor="#f6d2b8"] ;
642 -> 643 ;
644 [label="marital_divorced <= 0.5\nentropy = 0.95\nsamples = 12\nvalue = [14, 8]", fillcolor="#f4c9aa"] ;
643 -> 644 ;
645 [label="housing_no <= 0.5\nentropy = 0.98\nsamples = 11\nvalue = [11, 8]", fillcolor="#f8ddc9"] ;
644 -> 645 ;
646 [label="age <= 54.0\nentropy = 0.96\nsamples = 8\nvalue = [8, 5]", fillcolor="#f5d0b5"] ;
645 -> 646 ;
647 [label="entropy = 0.85\nsamples = 7\nvalue = [8, 3]", fillcolor="#efb083"] ;
646 -> 647 ;
648 [label="entropy = 0.0\nsamples = 1\nvalue = [0, 2]", fillcolor="#399de5"] ;
646 -> 648 ;
649 [label="marital_single <= 0.5\nentropy = 1.0\nsamples = 3\nvalue = [3, 3]", fillcolor="#ffffff"] ;
645 -> 649 ;
650 [label="entropy = 0.0\nsamples = 2\nvalue = [0, 3]", fillcolor="#399de5"] ;
649 -> 650 ;
651 [label="entropy = 0.0\nsamples = 1\nvalue = [3, 0]", fillcolor="#e58139"] ;
649 -> 651 ;
652 [label="entropy = 0.0\nsamples = 1\nvalue = [3, 0]", fillcolor="#e58139"] ;
644 -> 652 ;
653 [label="entropy = 0.0\nsamples = 1\nvalue = [0, 1]", fillcolor="#399de5"] ;
643 -> 653 ;
654 [label="month_apr <= 0.5\nentropy = 0.36\nsamples = 2078\nvalue = [3107, 229]", fillcolor="#e78a48"] ;
642 -> 654 ;
655 [label="cons_conf_idx <= -38.4\nentropy = 0.35\nsamples = 1913\nvalue = [2868, 202]", fillcolor="#e78a47"] ;
654 -> 655 ;
656 [label="marital_married <= 0.5\nentropy = 0.38\nsamples = 1318\nvalue = [1969, 156]", fillcolor="#e78b49"] ;
655 -> 656 ;
657 [label="marital_unknown <= 0.5\nentropy = 0.48\nsamples = 432\nvalue = [602, 70]", fillcolor="#e89050"] ;
656 -> 657 ;
658 [label="entropy = 0.47\nsamples = 431\nvalue = [602, 68]", fillcolor="#e88f4f"] ;
657 -> 658 ;
659 [label="entropy = 0.0\nsamples = 1\nvalue = [0, 2]", fillcolor="#399de5"] ;
657 -> 659 ;
660 [label="education_professional.course <= 0.5\nentropy = 0.32\nsamples = 886\nvalue = [1367, 86]", fillcolor="#e78945"] ;
656 -> 660 ;
661 [label="entropy = 0.32\nsamples = 833\nvalue = [1283, 78]", fillcolor="#e78945"] ;
660 -> 661 ;
662 [label="entropy = 0.43\nsamples = 53\nvalue = [84, 8]", fillcolor="#e78d4c"] ;
660 -> 662 ;
663 [label="euribor3m <= 4.97\nentropy = 0.28\nsamples = 595\nvalue = [899, 46]", fillcolor="#e68743"] ;
655 -> 663 ;
664 [label="day_of_week_thu <= 0.5\nentropy = 0.23\nsamples = 558\nvalue = [840, 33]", fillcolor="#e68641"] ;
663 -> 664 ;
665 [label="entropy = 0.26\nsamples = 444\nvalue = [666.0, 30.0]", fillcolor="#e68742"] ;
664 -> 665 ;
666 [label="entropy = 0.12\nsamples = 114\nvalue = [174, 3]", fillcolor="#e5833c"] ;
664 -> 666 ;
667 [label="euribor3m <= 4.97\nentropy = 0.68\nsamples = 37\nvalue = [59, 13]", fillcolor="#eb9d65"] ;
663 -> 667 ;
668 [label="entropy = 0.76\nsamples = 25\nvalue = [43, 12]", fillcolor="#eca470"] ;
667 -> 668 ;
669 [label="entropy = 0.32\nsamples = 12\nvalue = [16, 1]", fillcolor="#e78945"] ;
667 -> 669 ;
670 [label="housing_unknown <= 0.5\nentropy = 0.47\nsamples = 165\nvalue = [239, 27]", fillcolor="#e88f4f"] ;
654 -> 670 ;
671 [label="poutcome_failure <= 0.5\nentropy = 0.48\nsamples = 162\nvalue = [236, 27]", fillcolor="#e88f50"] ;
670 -> 671 ;
672 [label="marital_unknown <= 0.5\nentropy = 0.44\nsamples = 121\nvalue = [180, 18]", fillcolor="#e88e4d"] ;
671 -> 672 ;
673 [label="entropy = 0.44\nsamples = 120\nvalue = [179, 18]", fillcolor="#e88e4d"] ;
672 -> 673 ;
674 [label="entropy = 0.0\nsamples = 1\nvalue = [1, 0]", fillcolor="#e58139"] ;
672 -> 674 ;
675 [label="education_basic.9y <= 0.5\nentropy = 0.58\nsamples = 41\nvalue = [56, 9]", fillcolor="#e99559"] ;
671 -> 675 ;
676 [label="entropy = 0.58\nsamples = 21\nvalue = [25, 4]", fillcolor="#e99559"] ;
675 -> 676 ;
677 [label="entropy = 0.58\nsamples = 20\nvalue = [31, 5]", fillcolor="#e99559"] ;
675 -> 677 ;
678 [label="entropy = 0.0\nsamples = 3\nvalue = [3, 0]", fillcolor="#e58139"] ;
670 -> 678 ;
679 [label="month_jul <= 0.5\nentropy = 0.24\nsamples = 488\nvalue = [747, 31]", fillcolor="#e68641"] ;
641 -> 679 ;
680 [label="euribor3m <= 2.92\nentropy = 0.22\nsamples = 391\nvalue = [599, 22]", fillcolor="#e68640"] ;
679 -> 680 ;
681 [label="duration <= 608.5\nentropy = 0.39\nsamples = 153\nvalue = [232, 19]", fillcolor="#e78b49"] ;
680 -> 681 ;
682 [label="cons_conf_idx <= -48.55\nentropy = 0.17\nsamples = 138\nvalue = [224, 6]", fillcolor="#e6843e"] ;
681 -> 682 ;
683 [label="age <= 35.0\nentropy = 0.86\nsamples = 4\nvalue = [5, 2]", fillcolor="#efb388"] ;
682 -> 683 ;
684 [label="entropy = 1.0\nsamples = 2\nvalue = [2, 2]", fillcolor="#ffffff"] ;
683 -> 684 ;
685 [label="entropy = 0.0\nsamples = 2\nvalue = [3, 0]", fillcolor="#e58139"] ;
683 -> 685 ;
686 [label="previous <= 0.5\nentropy = 0.13\nsamples = 134\nvalue = [219, 4]", fillcolor="#e5833d"] ;
682 -> 686 ;
687 [label="entropy = 0.17\nsamples = 96\nvalue = [155, 4]", fillcolor="#e6843e"] ;
686 -> 687 ;
688 [label="entropy = 0.0\nsamples = 38\nvalue = [64, 0]", fillcolor="#e58139"] ;
686 -> 688 ;
689 [label="housing_no <= 0.5\nentropy = 0.96\nsamples = 15\nvalue = [8, 13]", fillcolor="#b3d9f5"] ;
681 -> 689 ;
690 [label="cons_conf_idx <= -46.65\nentropy = 1.0\nsamples = 12\nvalue = [8, 9]", fillcolor="#e9f4fc"] ;
689 -> 690 ;
691 [label="entropy = 0.0\nsamples = 2\nvalue = [2, 0]", fillcolor="#e58139"] ;
690 -> 691 ;
692 [label="entropy = 0.97\nsamples = 10\nvalue = [6, 9]", fillcolor="#bddef6"] ;
690 -> 692 ;
693 [label="entropy = 0.0\nsamples = 3\nvalue = [0, 4]", fillcolor="#399de5"] ;
689 -> 693 ;
694 [label="contact_cellular <= 0.5\nentropy = 0.07\nsamples = 238\nvalue = [367, 3]", fillcolor="#e5823b"] ;
680 -> 694 ;
695 [label="emp_var_rate <= 1.25\nentropy = 0.08\nsamples = 180\nvalue = [281, 3]", fillcolor="#e5823b"] ;
694 -> 695 ;
696 [label="entropy = 0.0\nsamples = 123\nvalue = [194, 0]", fillcolor="#e58139"] ;
695 -> 696 ;
697 [label="duration <= 672.0\nentropy = 0.21\nsamples = 57\nvalue = [87, 3]", fillcolor="#e68540"] ;
695 -> 697 ;
698 [label="entropy = 0.0\nsamples = 52\nvalue = [84, 0]", fillcolor="#e58139"] ;
697 -> 698 ;
699 [label="entropy = 1.0\nsamples = 5\nvalue = [3, 3]", fillcolor="#ffffff"] ;
697 -> 699 ;
700 [label="entropy = 0.0\nsamples = 58\nvalue = [86, 0]", fillcolor="#e58139"] ;
694 -> 700 ;
701 [label="housing_no <= 0.5\nentropy = 0.32\nsamples = 97\nvalue = [148, 9]", fillcolor="#e78945"] ;
679 -> 701 ;
702 [label="education_basic.9y <= 0.5\nentropy = 0.25\nsamples = 57\nvalue = [91, 4]", fillcolor="#e68742"] ;
701 -> 702 ;
703 [label="campaign <= 1.5\nentropy = 0.38\nsamples = 34\nvalue = [50, 4]", fillcolor="#e78b49"] ;
702 -> 703 ;
704 [label="entropy = 0.0\nsamples = 9\nvalue = [12, 0]", fillcolor="#e58139"] ;
703 -> 704 ;
705 [label="age <= 29.5\nentropy = 0.45\nsamples = 25\nvalue = [38, 4]", fillcolor="#e88e4e"] ;
703 -> 705 ;
706 [label="entropy = 0.92\nsamples = 3\nvalue = [4, 2]", fillcolor="#f2c09c"] ;
705 -> 706 ;
707 [label="entropy = 0.31\nsamples = 22\nvalue = [34, 2]", fillcolor="#e78845"] ;
705 -> 707 ;
708 [label="entropy = 0.0\nsamples = 23\nvalue = [41, 0]", fillcolor="#e58139"] ;
702 -> 708 ;
709 [label="euribor3m <= 4.96\nentropy = 0.4\nsamples = 40\nvalue = [57, 5]", fillcolor="#e78c4a"] ;
701 -> 709 ;
710 [label="age <= 34.0\nentropy = 0.14\nsamples = 33\nvalue = [50, 1]", fillcolor="#e6843d"] ;
709 -> 710 ;
711 [label="entropy = 0.0\nsamples = 16\nvalue = [28, 0]", fillcolor="#e58139"] ;
710 -> 711 ;
712 [label="loan_no <= 0.5\nentropy = 0.26\nsamples = 17\nvalue = [22, 1]", fillcolor="#e68742"] ;
710 -> 712 ;
713 [label="entropy = 0.0\nsamples = 4\nvalue = [6, 0]", fillcolor="#e58139"] ;
712 -> 713 ;
714 [label="entropy = 0.32\nsamples = 13\nvalue = [16, 1]", fillcolor="#e78945"] ;
712 -> 714 ;
715 [label="education_unknown <= 0.5\nentropy = 0.95\nsamples = 7\nvalue = [7, 4]", fillcolor="#f4c9aa"] ;
709 -> 715 ;
716 [label="marital_married <= 0.5\nentropy = 0.97\nsamples = 6\nvalue = [6, 4]", fillcolor="#f6d5bd"] ;
715 -> 716 ;
717 [label="entropy = 0.0\nsamples = 2\nvalue = [4, 0]", fillcolor="#e58139"] ;
716 -> 717 ;
718 [label="entropy = 0.92\nsamples = 4\nvalue = [2, 4]", fillcolor="#9ccef2"] ;
716 -> 718 ;
719 [label="entropy = 0.0\nsamples = 1\nvalue = [1, 0]", fillcolor="#e58139"] ;
715 -> 719 ;
720 [label="duration <= 379.5\nentropy = 0.99\nsamples = 152\nvalue = [126.0, 103.0]", fillcolor="#fae8db"] ;
428 -> 720 ;
721 [label="default_no <= 0.5\nentropy = 0.84\nsamples = 106\nvalue = [113.0, 42.0]", fillcolor="#efb083"] ;
720 -> 721 ;
722 [label="entropy = 0.0\nsamples = 9\nvalue = [13, 0]", fillcolor="#e58139"] ;
721 -> 722 ;
723 [label="duration <= 111.0\nentropy = 0.88\nsamples = 97\nvalue = [100, 42]", fillcolor="#f0b68c"] ;
721 -> 723 ;
724 [label="entropy = 0.0\nsamples = 21\nvalue = [32, 0]", fillcolor="#e58139"] ;
723 -> 724 ;
725 [label="contact_cellular <= 0.5\nentropy = 0.96\nsamples = 76\nvalue = [68, 42]", fillcolor="#f5cfb3"] ;
723 -> 725 ;
726 [label="entropy = 0.0\nsamples = 1\nvalue = [3, 0]", fillcolor="#e58139"] ;
725 -> 726 ;
727 [label="duration <= 328.5\nentropy = 0.97\nsamples = 75\nvalue = [65, 42]", fillcolor="#f6d2b9"] ;
725 -> 727 ;
728 [label="month_nov <= 0.5\nentropy = 0.98\nsamples = 68\nvalue = [57, 41]", fillcolor="#f8dcc7"] ;
727 -> 728 ;
729 [label="month_jun <= 0.5\nentropy = 0.99\nsamples = 63\nvalue = [49.0, 41.0]", fillcolor="#fbeadf"] ;
728 -> 729 ;
730 [label="job_unemployed <= 0.5\nentropy = 0.91\nsamples = 45\nvalue = [41, 20]", fillcolor="#f2be9a"] ;
729 -> 730 ;
731 [label="entropy = 0.89\nsamples = 41\nvalue = [39, 17]", fillcolor="#f0b88f"] ;
730 -> 731 ;
732 [label="entropy = 0.97\nsamples = 4\nvalue = [2, 3]", fillcolor="#bddef6"] ;
730 -> 732 ;
733 [label="education_basic.9y <= 0.5\nentropy = 0.85\nsamples = 18\nvalue = [8, 21]", fillcolor="#84c2ef"] ;
729 -> 733 ;
734 [label="entropy = 0.76\nsamples = 16\nvalue = [6, 21]", fillcolor="#72b9ec"] ;
733 -> 734 ;
735 [label="entropy = 0.0\nsamples = 2\nvalue = [2, 0]", fillcolor="#e58139"] ;
733 -> 735 ;
736 [label="entropy = 0.0\nsamples = 5\nvalue = [8, 0]", fillcolor="#e58139"] ;
728 -> 736 ;
737 [label="pdays <= 2.5\nentropy = 0.5\nsamples = 7\nvalue = [8, 1]", fillcolor="#e89152"] ;
727 -> 737 ;
738 [label="duration <= 364.0\nentropy = 1.0\nsamples = 2\nvalue = [1, 1]", fillcolor="#ffffff"] ;
737 -> 738 ;
739 [label="entropy = 0.0\nsamples = 1\nvalue = [0, 1]", fillcolor="#399de5"] ;
738 -> 739 ;
740 [label="entropy = 0.0\nsamples = 1\nvalue = [1, 0]", fillcolor="#e58139"] ;
738 -> 740 ;
741 [label="entropy = 0.0\nsamples = 5\nvalue = [7, 0]", fillcolor="#e58139"] ;
737 -> 741 ;
742 [label="job_unemployed <= 0.5\nentropy = 0.67\nsamples = 46\nvalue = [13, 61]", fillcolor="#63b2eb"] ;
720 -> 742 ;
743 [label="day_of_week_tue <= 0.5\nentropy = 0.7\nsamples = 44\nvalue = [13, 56]", fillcolor="#67b4eb"] ;
742 -> 743 ;
744 [label="job_retired <= 0.5\nentropy = 0.58\nsamples = 36\nvalue = [8, 50]", fillcolor="#59ade9"] ;
743 -> 744 ;
745 [label="duration <= 1106.0\nentropy = 0.54\nsamples = 35\nvalue = [7, 50]", fillcolor="#55abe9"] ;
744 -> 745 ;
746 [label="month_may <= 0.5\nentropy = 0.49\nsamples = 34\nvalue = [6, 50]", fillcolor="#51a9e8"] ;
745 -> 746 ;
747 [label="job_student <= 0.5\nentropy = 0.61\nsamples = 16\nvalue = [4, 23]", fillcolor="#5baeea"] ;
746 -> 747 ;
748 [label="age <= 37.0\nentropy = 0.4\nsamples = 15\nvalue = [2, 23]", fillcolor="#4aa6e7"] ;
747 -> 748 ;
749 [label="entropy = 0.0\nsamples = 8\nvalue = [0, 14]", fillcolor="#399de5"] ;
748 -> 749 ;
750 [label="entropy = 0.68\nsamples = 7\nvalue = [2, 9]", fillcolor="#65b3eb"] ;
748 -> 750 ;
751 [label="entropy = 0.0\nsamples = 1\nvalue = [2, 0]", fillcolor="#e58139"] ;
747 -> 751 ;
752 [label="education_high.school <= 0.5\nentropy = 0.36\nsamples = 18\nvalue = [2, 27]", fillcolor="#48a4e7"] ;
746 -> 752 ;
753 [label="education_university.degree <= 0.5\nentropy = 0.45\nsamples = 14\nvalue = [2, 19]", fillcolor="#4ea7e8"] ;
752 -> 753 ;
754 [label="entropy = 0.54\nsamples = 12\nvalue = [2, 14]", fillcolor="#55abe9"] ;
753 -> 754 ;
755 [label="entropy = 0.0\nsamples = 2\nvalue = [0, 5]", fillcolor="#399de5"] ;
753 -> 755 ;
756 [label="entropy = 0.0\nsamples = 4\nvalue = [0, 8]", fillcolor="#399de5"] ;
752 -> 756 ;
757 [label="entropy = 0.0\nsamples = 1\nvalue = [1, 0]", fillcolor="#e58139"] ;
745 -> 757 ;
758 [label="entropy = 0.0\nsamples = 1\nvalue = [1, 0]", fillcolor="#e58139"] ;
744 -> 758 ;
759 [label="emp_var_rate <= -2.35\nentropy = 0.99\nsamples = 8\nvalue = [5, 6]", fillcolor="#deeffb"] ;
743 -> 759 ;
760 [label="entropy = 0.0\nsamples = 1\nvalue = [0, 3]", fillcolor="#399de5"] ;
759 -> 760 ;
761 [label="campaign <= 1.5\nentropy = 0.95\nsamples = 7\nvalue = [5, 3]", fillcolor="#f5cdb0"] ;
759 -> 761 ;
762 [label="duration <= 718.5\nentropy = 0.81\nsamples = 3\nvalue = [1, 3]", fillcolor="#7bbeee"] ;
761 -> 762 ;
763 [label="job_unknown <= 0.5\nentropy = 1.0\nsamples = 2\nvalue = [1, 1]", fillcolor="#ffffff"] ;
762 -> 763 ;
764 [label="entropy = 0.0\nsamples = 1\nvalue = [0, 1]", fillcolor="#399de5"] ;
763 -> 764 ;
765 [label="entropy = 0.0\nsamples = 1\nvalue = [1, 0]", fillcolor="#e58139"] ;
763 -> 765 ;
766 [label="entropy = 0.0\nsamples = 1\nvalue = [0, 2]", fillcolor="#399de5"] ;
762 -> 766 ;
767 [label="entropy = 0.0\nsamples = 4\nvalue = [4, 0]", fillcolor="#e58139"] ;
761 -> 767 ;
768 [label="entropy = 0.0\nsamples = 2\nvalue = [0, 5]", fillcolor="#399de5"] ;
742 -> 768 ;
}